{"learner":{"attributes":{},"feature_names":["height","weight","forty","bench","vertical","broad_jump","cone","shuttle","age","years_since_first_played","played_at_18","played_at_19","played_at_20","played_at_21","played_at_22","played_at_23","Y0_receiving_REC","Y0_receiving_TD","Y0_receiving_YDS","Y0_receiving_YPR","Y0_rushing_CAR","Y0_rushing_TD","Y0_rushing_YDS","Y0_rushing_YPC","Y1_receiving_REC","Y1_receiving_TD","Y1_receiving_YDS","Y1_receiving_YPR","Y1_rushing_CAR","Y1_rushing_TD","Y1_rushing_YDS","Y1_rushing_YPC","Y2_receiving_REC","Y2_receiving_TD","Y2_receiving_YDS","Y2_receiving_YPR","Y2_rushing_CAR","Y2_rushing_TD","Y2_rushing_YDS","Y2_rushing_YPC","Y3_receiving_REC","Y3_receiving_TD","Y3_receiving_YDS","Y3_receiving_YPR","Y3_rushing_CAR","Y3_rushing_TD","Y3_rushing_YDS","Y3_rushing_YPC","conference_prestige"],"feature_types":["float","float","float","float","float","float","float","float","float","int","int","int","int","int","int","int","float","float","float","float","float","float","float","float","float","float","float","float","float","float","float","float","float","float","float","float","float","float","float","float","float","float","float","float","float","float","float","float","float"],"gradient_booster":{"model":{"cats":{"enc":[],"feature_segments":[],"sorted_idx":[]},"gbtree_model_param":{"num_parallel_tree":"1","num_trees":"300"},"iteration_indptr":[0,1,2,3,4,5,6,7,8,9,10,11,12,13,14,15,16,17,18,19,20,21,22,23,24,25,26,27,28,29,30,31,32,33,34,35,36,37,38,39,40,41,42,43,44,45,46,47,48,49,50,51,52,53,54,55,56,57,58,59,60,61,62,63,64,65,66,67,68,69,70,71,72,73,74,75,76,77,78,79,80,81,82,83,84,85,86,87,88,89,90,91,92,93,94,95,96,97,98,99,100,101,102,103,104,105,106,107,108,109,110,111,112,113,114,115,116,117,118,119,120,121,122,123,124,125,126,127,128,129,130,131,132,133,134,135,136,137,138,139,140,141,142,143,144,145,146,147,148,149,150,151,152,153,154,155,156,157,158,159,160,161,162,163,164,165,166,167,168,169,170,171,172,173,174,175,176,177,178,179,180,181,182,183,184,185,186,187,188,189,190,191,192,193,194,195,196,197,198,199,200,201,202,203,204,205,206,207,208,209,210,211,212,213,214,215,216,217,218,219,220,221,222,223,224,225,226,227,228,229,230,231,232,233,234,235,236,237,238,239,240,241,242,243,244,245,246,247,248,249,250,251,252,253,254,255,256,257,258,259,260,261,262,263,264,265,266,267,268,269,270,271,272,273,274,275,276,277,278,279,280,281,282,283,284,285,286,287,288,289,290,291,292,293,294,295,296,297,298,299,300],"tree_info":[0,0,0,0,0,0,0,0,0,0,0,0,0,0,0,0,0,0,0,0,0,0,0,0,0,0,0,0,0,0,0,0,0,0,0,0,0,0,0,0,0,0,0,0,0,0,0,0,0,0,0,0,0,0,0,0,0,0,0,0,0,0,0,0,0,0,0,0,0,0,0,0,0,0,0,0,0,0,0,0,0,0,0,0,0,0,0,0,0,0,0,0,0,0,0,0,0,0,0,0,0,0,0,0,0,0,0,0,0,0,0,0,0,0,0,0,0,0,0,0,0,0,0,0,0,0,0,0,0,0,0,0,0,0,0,0,0,0,0,0,0,0,0,0,0,0,0,0,0,0,0,0,0,0,0,0,0,0,0,0,0,0,0,0,0,0,0,0,0,0,0,0,0,0,0,0,0,0,0,0,0,0,0,0,0,0,0,0,0,0,0,0,0,0,0,0,0,0,0,0,0,0,0,0,0,0,0,0,0,0,0,0,0,0,0,0,0,0,0,0,0,0,0,0,0,0,0,0,0,0,0,0,0,0,0,0,0,0,0,0,0,0,0,0,0,0,0,0,0,0,0,0,0,0,0,0,0,0,0,0,0,0,0,0,0,0,0,0,0,0,0,0,0,0,0,0,0,0,0,0,0,0,0,0,0,0,0,0,0,0,0,0,0,0,0,0,0,0,0,0],"trees":[{"base_weights":[3.2646996E-3,-5.3498045E-2,1.8162626E-1,-1.061164E-1,9.017427E-2,-2.2041436E-2,3.0819115E-1,2.2464732E-2,-1.4586326E-1,1.9765641E-1,-4.9831998E-2,-5.7056365E-3,-0E0,3.5794118E-1,-0E0,-4.1669277E-3,1.3803016E-2,-1.3460267E-2,-0E0,-9.790238E-4,2.2915024E-2,-7.457873E-3,-0E0,3.3561382E-2,-0E0],"categories":[],"categories_nodes":[],"categories_segments":[],"categories_sizes":[],"default_left":[1,0,0,0,1,0,0,1,1,0,0,0,0,1,0,0,0,0,0,0,0,0,0,0,0],"id":0,"left_children":[1,3,5,7,9,11,13,15,17,19,21,-1,-1,23,-1,-1,-1,-1,-1,-1,-1,-1,-1,-1,-1],"loss_changes":[1.3591582E0,7.4529004E-1,1.0073076E0,4.413339E-1,4.5476758E-1,4.4550356E-2,3.447168E-1,2.572096E-1,2.1678817E-1,4.42266E-1,3.6001954E-2,0E0,0E0,3.815999E-1,0E0,0E0,0E0,0E0,0E0,0E0,0E0,0E0,0E0,0E0,0E0],"parents":[2147483647,0,0,1,1,2,2,3,3,4,4,5,5,6,6,7,7,8,8,9,9,10,10,13,13],"right_children":[2,4,6,8,10,12,14,16,18,20,22,-1,-1,24,-1,-1,-1,-1,-1,-1,-1,-1,-1,-1,-1],"split_conditions":[5.7043076E-1,3.6789298E-1,4.5454547E-1,3.6363637E-1,5.0695854E-1,6.4912283E-1,7.9583335E-1,4.7083333E-1,6.333333E-1,4.25E-1,1E0,-5.7056365E-3,-0E0,2.0408163E-2,-0E0,-4.1669277E-3,1.3803016E-2,-1.3460267E-2,-0E0,-9.790238E-4,2.2915024E-2,-7.457873E-3,-0E0,3.3561382E-2,-0E0],"split_indices":[26,17,0,0,6,32,35,35,5,35,48,0,0,20,0,0,0,0,0,0,0,0,0,0,0],"split_type":[0,0,0,0,0,0,0,0,0,0,0,0,0,0,0,0,0,0,0,0,0,0,0,0,0],"sum_hessian":[1.24E2,9.3E1,3.1E1,7.1E1,2.2E1,1.1E1,2E1,1.4E1,5.7E1,1.4E1,8E0,8E0,3E0,1.7E1,3E0,8E0,6E0,5E1,7E0,3E0,1.1E1,5E0,3E0,1.4E1,3E0],"tree_param":{"num_deleted":"0","num_feature":"49","num_nodes":"25","size_leaf_vector":"1"}},{"base_weights":[1.5950317E-2,-2.5724988E-2,1.5742058E-1,-9.3058504E-2,2.2623561E-2,-0E0,2.5206107E-1,-1.5989506E-1,7.015482E-2,-1.0694702E-1,1.1885796E-1,-4.8407023E-3,7.102469E-3,2.962881E-1,-0E0,-1.2662349E-3,-1.5239439E-2,1.7095847E-2,-4.9030236E-3,-1.0081891E-2,-0E0,1.7990373E-2,-0E0,-0E0,2.8445758E-2],"categories":[],"categories_nodes":[],"categories_segments":[],"categories_sizes":[],"default_left":[1,0,0,1,0,0,1,1,0,1,0,0,0,0,0,0,0,0,0,0,0,0,0,0,0],"id":1,"left_children":[1,3,5,7,9,11,13,15,17,19,21,-1,-1,23,-1,-1,-1,-1,-1,-1,-1,-1,-1,-1,-1],"loss_changes":[7.9913247E-1,3.45443E-1,5.024772E-1,5.47284E-1,6.797741E-1,7.602334E-2,2.216773E-1,4.0686667E-2,3.2881173E-1,4.568425E-2,4.9464837E-1,0E0,0E0,2.7766728E-1,0E0,0E0,0E0,0E0,0E0,0E0,0E0,0E0,0E0,0E0,0E0],"parents":[2147483647,0,0,1,1,2,2,3,3,4,4,5,5,6,6,7,7,8,8,9,9,10,10,13,13],"right_children":[2,4,6,8,10,12,14,16,18,20,22,-1,-1,24,-1,-1,-1,-1,-1,-1,-1,-1,-1,-1,-1],"split_conditions":[5.9701204E-1,5.16129E-1,4.5454547E-1,4E-1,2.5996482E-1,8E-1,2.173913E-2,2.1280713E-2,5.0931674E-1,1.0465116E-1,3.975553E-1,-4.8407023E-3,7.102469E-3,1.6330859E-1,-0E0,-1.2662349E-3,-1.5239439E-2,1.7095847E-2,-4.9030236E-3,-1.0081891E-2,-0E0,1.7990373E-2,-0E0,-0E0,2.8445758E-2],"split_indices":[26,4,0,33,18,33,36,7,19,47,26,0,0,42,0,0,0,0,0,0,0,0,0,0,0],"split_type":[0,0,0,0,0,0,0,0,0,0,0,0,0,0,0,0,0,0,0,0,0,0,0,0,0],"sum_hessian":[1.21E2,9.2E1,2.9E1,4.2E1,5E1,1.1E1,1.8E1,3.2E1,1E1,1.9E1,3.1E1,8E0,3E0,1.5E1,3E0,9E0,2.3E1,6E0,4E0,1.6E1,3E0,1.7E1,1.4E1,3E0,1.2E1],"tree_param":{"num_deleted":"0","num_feature":"49","num_nodes":"25","size_leaf_vector":"1"}},{"base_weights":[1.445506E-2,-3.479149E-2,1.8781337E-1,-1.2843011E-1,6.4148465E-3,-5.85507E-3,2.4518654E-2,-0E0,-1.449816E-1,6.633234E-2,-8.736835E-2,-0E0,-3.9390046E-3,-0E0,-1.317255E-2,-0E0,1.4731924E-2,-1.2426849E-2,1.7215398E-3],"categories":[],"categories_nodes":[],"categories_segments":[],"categories_sizes":[],"default_left":[1,0,0,0,1,0,0,0,0,0,1,0,0,0,0,0,0,0,0],"id":2,"left_children":[1,3,5,7,9,11,-1,-1,13,15,17,-1,-1,-1,-1,-1,-1,-1,-1],"loss_changes":[1.0713688E0,4.0606225E-1,7.974156E-1,5.6207776E-2,3.3822793E-1,1.9017598E-2,0E0,0E0,8.315438E-2,3.9608574E-1,2.2901025E-1,0E0,0E0,0E0,0E0,0E0,0E0,0E0,0E0],"parents":[2147483647,0,0,1,1,2,2,3,3,4,4,5,5,8,8,9,9,10,10],"right_children":[2,4,6,8,10,12,-1,-1,14,16,18,-1,-1,-1,-1,-1,-1,-1,-1],"split_conditions":[5.9701204E-1,2.651526E-1,4.5454547E-1,6.5E-2,5.6956106E-1,3.478261E-1,2.4518654E-2,-0E0,2.6086956E-1,4.5666772E-1,3.9130434E-1,-0E0,-3.9390046E-3,-0E0,-1.317255E-2,-0E0,1.4731924E-2,-1.2426849E-2,1.7215398E-3],"split_indices":[26,18,0,25,7,17,0,0,3,18,3,0,0,0,0,0,0,0,0],"split_type":[0,0,0,0,0,0,0,0,0,0,0,0,0,0,0,0,0,0,0],"sum_hessian":[1.13E2,8.7E1,2.6E1,2.9E1,5.8E1,9E0,1.7E1,4E0,2.5E1,3.9E1,1.9E1,3E0,6E0,3E0,2.2E1,2.4E1,1.5E1,1.4E1,5E0],"tree_param":{"num_deleted":"0","num_feature":"49","num_nodes":"19","size_leaf_vector":"1"}},{"base_weights":[-0E0,-5.7671856E-2,1.971599E-1,4.7797333E-2,-1.0339505E-1,2.7326745E-1,-1.4362154E-3,-5.1143587E-2,1.3622491E-1,-1.4418916E-1,1.408101E-3,-0E0,3.3221143E-1,-0E0,-6.356355E-3,-2.0244836E-3,1.7736483E-2,-0E0,-1.33053595E-2,1.4397159E-2,-7.286177E-3,2.9014971E-2,-0E0],"categories":[],"categories_nodes":[],"categories_segments":[],"categories_sizes":[],"default_left":[1,0,1,1,0,0,0,0,0,0,1,0,1,0,0,0,0,0,0,0,0,0,0],"id":3,"left_children":[1,3,5,7,9,11,-1,13,15,17,19,-1,21,-1,-1,-1,-1,-1,-1,-1,-1,-1,-1],"loss_changes":[1.495439E0,5.1509935E-1,6.286197E-1,3.0144966E-1,3.838972E-1,4.1508663E-1,0E0,2.5429074E-2,3.5796228E-1,1.6347587E-1,3.9098802E-1,0E0,2.8924704E-2,0E0,0E0,0E0,0E0,0E0,0E0,0E0,0E0,0E0,0E0],"parents":[2147483647,0,0,1,1,2,2,3,3,4,4,5,5,7,7,8,8,9,9,10,10,12,12],"right_children":[2,4,6,8,10,12,-1,14,16,18,20,-1,22,-1,-1,-1,-1,-1,-1,-1,-1,-1,-1],"split_conditions":[5.9701204E-1,4E-1,1.6091955E-1,2.3411371E-1,3.6789298E-1,7.563025E-3,-1.4362154E-3,2.1567218E-1,1.3333334E-1,3.6144578E-1,4.013378E-1,-0E0,1.8518518E-1,-0E0,-6.356355E-3,-2.0244836E-3,1.7736483E-2,-0E0,-1.33053595E-2,1.4397159E-2,-7.286177E-3,2.9014971E-2,-0E0],"split_indices":[26,8,39,17,17,38,0,16,33,1,17,0,40,0,0,0,0,0,0,0,0,0,0],"split_type":[0,0,0,0,0,0,0,0,0,0,0,0,0,0,0,0,0,0,0,0,0,0,0],"sum_hessian":[1.25E2,9.7E1,2.8E1,2.6E1,7.1E1,2.2E1,6E0,1E1,1.6E1,5.4E1,1.7E1,4E0,1.8E1,3E0,7E0,4E0,1.2E1,8E0,4.6E1,7E0,1E1,1.5E1,3E0],"tree_param":{"num_deleted":"0","num_feature":"49","num_nodes":"23","size_leaf_vector":"1"}},{"base_weights":[8.298648E-3,-5.3650495E-2,9.460365E-2,-9.941199E-2,6.944429E-2,1.3443394E-1,-3.8818114E-2,-1.2616684E-1,4.505057E-3,-5.25124E-3,1.8959343E-1,-0E0,2.1188535E-1,4.3279526E-4,-8.825485E-3,-1.1898756E-2,-0E0,-0E0,1.9417448E-2,-4.3084444E-3,1.2772767E-2,2.0955782E-2,-0E0],"categories":[],"categories_nodes":[],"categories_segments":[],"categories_sizes":[],"default_left":[0,0,1,1,1,0,0,0,0,0,0,1,1,0,0,0,0,0,0,0,0,0,0],"id":4,"left_children":[1,3,5,7,9,11,13,15,-1,-1,17,19,21,-1,-1,-1,-1,-1,-1,-1,-1,-1,-1],"loss_changes":[7.203288E-1,4.4000012E-1,3.6646998E-1,2.8662163E-1,3.790123E-1,4.793828E-1,9.159586E-2,1.0138166E-1,0E0,0E0,9.886071E-2,1.9935384E-1,4.371637E-1,0E0,0E0,0E0,0E0,0E0,0E0,0E0,0E0,0E0,0E0],"parents":[2147483647,0,0,1,1,2,2,3,3,4,4,5,5,6,6,7,7,10,10,11,11,12,12],"right_children":[2,4,6,8,10,12,14,16,-1,-1,18,20,22,-1,-1,-1,-1,-1,-1,-1,-1,-1,-1],"split_conditions":[4.311295E-1,3.6789298E-1,2.8395063E-1,5.5E-1,4.1317365E-1,3E-1,1.183432E-2,3.3333334E-1,4.505057E-3,-5.25124E-3,6.234396E-1,6.451613E-1,7.444904E-1,4.3279526E-4,-8.825485E-3,-1.1898756E-2,-0E0,-0E0,1.9417448E-2,-4.3084444E-3,1.2772767E-2,2.0955782E-2,-0E0],"split_indices":[34,17,40,25,27,25,22,33,0,0,2,4,34,0,0,0,0,0,0,0,0,0,0],"split_type":[0,0,0,0,0,0,0,0,0,0,0,0,0,0,0,0,0,0,0,0,0,0,0],"sum_hessian":[1.27E2,7.1E1,5.6E1,5.5E1,1.6E1,4.6E1,1E1,5E1,5E0,6E0,1E1,1.8E1,2.8E1,3E0,7E0,4E1,1E1,3E0,7E0,1.4E1,4E0,2.4E1,4E0],"tree_param":{"num_deleted":"0","num_feature":"49","num_nodes":"23","size_leaf_vector":"1"}},{"base_weights":[-6.4095296E-3,9.158401E-2,-5.2851964E-2,-3.9991956E-2,1.5273702E-1,-8.31304E-2,3.5200004E-2,-5.0614914E-3,-0E0,2.2816157E-1,-0E0,-1.17396675E-1,1.445316E-2,-6.231853E-2,1.6851854E-1,-0E0,2.4409518E-2,6.231998E-3,-6.8782303E-3,-1.13194855E-2,-0E0,-5.1009273E-3,9.701899E-3,-8.095611E-3,-0E0,2.0480003E-2,-0E0],"categories":[],"categories_nodes":[],"categories_segments":[],"categories_sizes":[],"default_left":[0,0,1,1,1,0,0,0,0,0,1,1,0,1,1,0,0,0,0,0,0,0,0,0,0,0,0],"id":5,"left_children":[1,3,5,7,9,11,13,-1,-1,15,17,19,21,23,25,-1,-1,-1,-1,-1,-1,-1,-1,-1,-1,-1,-1],"loss_changes":[6.092587E-1,3.9848596E-1,2.8842694E-1,1.2831101E-2,3.7002534E-1,3.1233984E-1,3.6012626E-1,0E0,0E0,4.8944724E-1,9.422422E-2,2.4040252E-1,1.9461031E-1,4.5560904E-2,2.4904224E-1,0E0,0E0,0E0,0E0,0E0,0E0,0E0,0E0,0E0,0E0,0E0,0E0],"parents":[2147483647,0,0,1,1,2,2,3,3,4,4,5,5,6,6,9,9,10,10,11,11,12,12,13,13,14,14],"right_children":[2,4,6,8,10,12,14,-1,-1,16,18,20,22,24,26,-1,-1,-1,-1,-1,-1,-1,-1,-1,-1,-1,-1],"split_conditions":[4E-1,2.173913E-1,6.146789E-1,4.516129E-1,6.5678567E-1,3.6789298E-1,2.8E-1,-5.0614914E-3,-0E0,2.8797644E-1,3.3444816E-1,6.5678567E-1,5.6277055E-2,4.6666667E-1,1.7006803E-2,-0E0,2.4409518E-2,6.231998E-3,-6.8782303E-3,-1.13194855E-2,-0E0,-5.1009273E-3,9.701899E-3,-8.095611E-3,-0E0,2.0480003E-2,-0E0],"split_indices":[8,17,24,4,2,17,43,0,0,2,17,2,21,5,20,0,0,0,0,0,0,0,0,0,0,0,0],"split_type":[0,0,0,0,0,0,0,0,0,0,0,0,0,0,0,0,0,0,0,0,0,0,0,0,0,0,0],"sum_hessian":[1.34E2,3.9E1,9.5E1,1E1,2.9E1,7.5E1,2E1,6E0,4E0,1.9E1,1E1,5.9E1,1.6E1,1E1,1E1,4E0,1.5E1,5E0,5E0,5.2E1,7E0,7E0,9E0,7E0,3E0,7E0,3E0],"tree_param":{"num_deleted":"0","num_feature":"49","num_nodes":"27","size_leaf_vector":"1"}},{"base_weights":[-0E0,-3.4368727E-2,1.3370046E-1,-7.3563896E-2,5.212697E-2,-0E0,2.3237221E-1,-9.344153E-2,3.741467E-2,-3.876989E-2,1.397606E-1,-0E0,-3.240481E-3,2.3527982E-2,-0E0,5.694875E-4,-9.072906E-3,-1.620799E-3,1.2507092E-2,-0E0,-7.7769933E-3,1.7431615E-2,-0E0],"categories":[],"categories_nodes":[],"categories_segments":[],"categories_sizes":[],"default_left":[1,0,0,1,1,1,1,0,0,0,1,0,0,0,0,0,0,0,0,0,0,0,0],"id":6,"left_children":[1,3,5,7,9,11,13,15,17,19,21,-1,-1,-1,-1,-1,-1,-1,-1,-1,-1,-1,-1],"loss_changes":[5.852545E-1,3.6418957E-1,4.5317522E-1,2.0045492E-1,2.923354E-1,1.3125896E-2,2.9297912E-1,1.9131643E-1,1.3610427E-1,7.4962184E-2,2.1814528E-1,0E0,0E0,0E0,0E0,0E0,0E0,0E0,0E0,0E0,0E0,0E0,0E0],"parents":[2147483647,0,0,1,1,2,2,3,3,4,4,5,5,6,6,7,7,8,8,9,9,10,10],"right_children":[2,4,6,8,10,12,14,16,18,20,22,-1,-1,-1,-1,-1,-1,-1,-1,-1,-1,-1,-1],"split_conditions":[5.9701204E-1,3.6789298E-1,2.7272728E-1,7.3333335E-1,4.1317365E-1,2.580645E-1,7.5416666E-1,1.736527E-1,1.5810277E-1,1.4712644E-1,1.1337869E-2,-0E0,-3.240481E-3,2.3527982E-2,-0E0,5.694875E-4,-9.072906E-3,-1.620799E-3,1.2507092E-2,-0E0,-7.7769933E-3,1.7431615E-2,-0E0],"split_indices":[26,17,37,35,27,4,35,27,17,39,20,0,0,0,0,0,0,0,0,0,0,0,0],"split_type":[0,0,0,0,0,0,0,0,0,0,0,0,0,0,0,0,0,0,0,0,0,0,0],"sum_hessian":[1.24E2,1E2,2.4E1,7.3E1,2.7E1,9E0,1.5E1,6.6E1,7E0,1.1E1,1.6E1,3E0,6E0,1.2E1,3E0,7E0,5.9E1,3E0,4E0,3E0,8E0,1E1,6E0],"tree_param":{"num_deleted":"0","num_feature":"49","num_nodes":"23","size_leaf_vector":"1"}},{"base_weights":[-0E0,-4.3256573E-2,1.20559454E-1,-9.878059E-2,1.0441468E-2,-3.7069654E-3,1.8830161E-1,-1.325971E-1,-0E0,-4.8441198E-2,9.645515E-2,-3.7739193E-3,-0E0,-0E0,2.4241877E-1,-0E0,-1.1385011E-2,1.5933989E-2,-5.609061E-3,-8.172412E-3,6.582118E-4,-0E0,1.6997796E-2,-0E0,2.4217185E-2],"categories":[],"categories_nodes":[],"categories_segments":[],"categories_sizes":[],"default_left":[1,0,0,1,1,0,0,0,1,1,0,0,0,0,0,0,0,0,0,0,0,0,0,0,0],"id":7,"left_children":[1,3,5,7,9,11,13,15,17,19,21,-1,-1,-1,23,-1,-1,-1,-1,-1,-1,-1,-1,-1,-1],"loss_changes":[6.5178525E-1,3.2053325E-1,3.7148982E-1,2.1539947E-1,2.5619924E-1,1.7651927E-2,2.655905E-1,4.6077073E-2,2.4259593E-1,1.2169853E-1,3.3705527E-1,0E0,0E0,0E0,3.4960973E-1,0E0,0E0,0E0,0E0,0E0,0E0,0E0,0E0,0E0,0E0],"parents":[2147483647,0,0,1,1,2,2,3,3,4,4,5,5,6,6,7,7,8,8,9,9,10,10,14,14],"right_children":[2,4,6,8,10,12,14,16,18,20,22,-1,-1,-1,24,-1,-1,-1,-1,-1,-1,-1,-1,-1,-1],"split_conditions":[5.6344587E-1,1E0,4.5454547E-1,5.16129E-1,1.3116371E-2,6.4912283E-1,2.2222222E-1,2.4844721E-1,2.6086956E-1,5E-1,5.208333E-1,-3.7739193E-3,-0E0,-0E0,2.6152512E-1,-0E0,-1.1385011E-2,1.5933989E-2,-5.609061E-3,-8.172412E-3,6.582118E-4,-0E0,1.6997796E-2,-0E0,2.4217185E-2],"split_indices":[26,48,0,4,22,32,41,19,3,5,35,0,0,0,2,0,0,0,0,0,0,0,0,0,0],"split_type":[0,0,0,0,0,0,0,0,0,0,0,0,0,0,0,0,0,0,0,0,0,0,0,0,0],"sum_hessian":[1.21E2,9E1,3.1E1,4.8E1,4.2E1,9E0,2.2E1,3.8E1,1E1,2.2E1,2E1,6E0,3E0,5E0,1.7E1,3E0,3.5E1,3E0,7E0,1.5E1,7E0,1E1,1E1,3E0,1.4E1],"tree_param":{"num_deleted":"0","num_feature":"49","num_nodes":"25","size_leaf_vector":"1"}},{"base_weights":[-0E0,-3.377255E-2,1.1923644E-1,-7.5071745E-2,5.9930492E-2,-1.9289147E-2,1.8149698E-1,1.3466509E-3,-1.1706978E-1,1.9608046E-1,-0E0,-0E0,-3.4007593E-3,2.5550088E-1,-0E0,4.7949837E-3,-5.465517E-3,-1.1039657E-2,2.7865737E-3,2.052064E-2,-0E0,-5.510182E-3,8.576095E-3,-0E0,2.3938382E-2],"categories":[],"categories_nodes":[],"categories_segments":[],"categories_sizes":[],"default_left":[1,1,0,0,0,0,1,1,1,0,0,0,0,0,0,0,0,0,0,0,0,0,0,0,0],"id":8,"left_children":[1,3,5,7,9,11,13,15,17,19,21,-1,-1,23,-1,-1,-1,-1,-1,-1,-1,-1,-1,-1,-1],"loss_changes":[5.1214373E-1,4.0355477E-1,3.295968E-1,2.9567415E-1,2.8390887E-1,6.0587153E-3,3.8506657E-1,1.0196096E-1,2.2648692E-1,7.60991E-2,1.5160586E-1,0E0,0E0,1.4376628E-1,0E0,0E0,0E0,0E0,0E0,0E0,0E0,0E0,0E0,0E0,0E0],"parents":[2147483647,0,0,1,1,2,2,3,3,4,4,5,5,6,6,7,7,8,8,9,9,10,10,13,13],"right_children":[2,4,6,8,10,12,14,16,18,20,22,-1,-1,24,-1,-1,-1,-1,-1,-1,-1,-1,-1,-1,-1],"split_conditions":[5.9701204E-1,5.16129E-1,2.8E-1,1E0,6.642402E-2,5.1761323E-1,4.473684E-1,2.1110637E-1,7.0523417E-1,5.2095807E-1,5.341615E-1,-0E0,-3.4007593E-3,1.01149425E-1,-0E0,4.7949837E-3,-5.465517E-3,-1.1039657E-2,2.7865737E-3,2.052064E-2,-0E0,-5.510182E-3,8.576095E-3,-0E0,2.3938382E-2],"split_indices":[26,4,43,13,30,16,32,6,34,27,19,0,0,39,0,0,0,0,0,0,0,0,0,0,0],"split_type":[0,0,0,0,0,0,0,0,0,0,0,0,0,0,0,0,0,0,0,0,0,0,0,0,0],"sum_hessian":[1.24E2,9.8E1,2.6E1,7.2E1,2.6E1,6E0,2E1,2.2E1,5E1,8E0,1.8E1,3E0,3E0,1.5E1,5E0,1.6E1,6E0,4.7E1,3E0,5E0,3E0,1.3E1,5E0,3E0,1.2E1],"tree_param":{"num_deleted":"0","num_feature":"49","num_nodes":"25","size_leaf_vector":"1"}},{"base_weights":[-8.899714E-3,-8.8228025E-2,3.2579035E-2,3.0194871E-2,-1.3184349E-1,-2.9361596E-2,9.589354E-2,1.140839E-2,-0E0,-0E0,-1.3996321E-1,-8.048623E-2,-0E0,-6.111684E-2,1.7660168E-1,-2.472134E-3,-0E0,-0E0,-1.1815608E-2,-7.184969E-3,-0E0,3.9906274E-3,-3.940897E-3,-6.854822E-3,-0E0,-0E0,1.8016322E-2],"categories":[],"categories_nodes":[],"categories_segments":[],"categories_sizes":[],"default_left":[0,0,0,0,0,0,0,0,0,0,0,1,0,0,0,0,0,0,0,0,0,0,0,0,0,0,0],"id":9,"left_children":[1,3,5,7,9,11,13,-1,15,-1,17,19,21,23,25,-1,-1,-1,-1,-1,-1,-1,-1,-1,-1,-1,-1],"loss_changes":[4.679112E-1,3.1703985E-1,3.683234E-1,9.073998E-2,2.9510736E-2,8.859849E-2,6.622417E-1,0E0,5.729481E-3,0E0,1.6851544E-2,5.976826E-3,6.165277E-2,3.207457E-2,3.4014618E-1,0E0,0E0,0E0,0E0,0E0,0E0,0E0,0E0,0E0,0E0,0E0,0E0],"parents":[2147483647,0,0,1,1,2,2,3,3,4,4,5,5,6,6,8,8,10,10,11,11,12,12,13,13,14,14],"right_children":[2,4,6,8,10,12,14,-1,16,-1,18,20,22,24,26,-1,-1,-1,-1,-1,-1,-1,-1,-1,-1,-1,-1],"split_conditions":[5.6666666E-1,1.9760479E-1,3.97873E-1,8.69245E-1,1.01149425E-1,4.409938E-1,4.5454547E-1,1.140839E-2,3.7306644E-2,-0E0,1.581596E-1,2.3375E-1,3.451307E-1,4.8387095E-1,3.1629094E-1,-2.472134E-3,-0E0,-0E0,-1.1815608E-2,-7.184969E-3,-0E0,3.9906274E-3,-3.940897E-3,-6.854822E-3,-0E0,-0E0,1.8016322E-2],"split_indices":[35,27,18,6,39,19,0,0,30,0,16,23,18,4,2,0,0,0,0,0,0,0,0,0,0,0,0],"split_type":[0,0,0,0,0,0,0,0,0,0,0,0,0,0,0,0,0,0,0,0,0,0,0,0,0,0,0],"sum_hessian":[1.3E2,4.8E1,8.2E1,1E1,3.8E1,3.8E1,4.4E1,3E0,7E0,3E0,3.5E1,1.7E1,2.1E1,1.3E1,3.1E1,4E0,3E0,3E0,3.2E1,1.4E1,3E0,1.4E1,7E0,1E1,3E0,6E0,2.5E1],"tree_param":{"num_deleted":"0","num_feature":"49","num_nodes":"27","size_leaf_vector":"1"}},{"base_weights":[-0E0,-6.57064E-2,4.665518E-2,-8.588455E-2,7.248564E-3,1.0499574E-1,-3.7022762E-2,-1.19622275E-1,-0E0,-0E0,1.6824418E-1,-9.542106E-2,8.492783E-2,-0E0,-1.0262806E-2,5.1083234E-3,-5.0355713E-3,-3.9613675E-3,5.592127E-3,-7.946849E-5,1.6244913E-2,-0E0,-9.782416E-3,1.3222656E-2,-0E0],"categories":[],"categories_nodes":[],"categories_segments":[],"categories_sizes":[],"default_left":[0,0,0,1,0,0,1,0,0,0,0,0,0,0,0,0,0,0,0,0,0,0,0,0,0],"id":10,"left_children":[1,3,5,7,-1,9,11,13,15,17,19,21,23,-1,-1,-1,-1,-1,-1,-1,-1,-1,-1,-1,-1],"loss_changes":[4.2882293E-1,2.0244923E-1,4.2254272E-1,1.6624817E-1,0E0,3.5459006E-1,2.3510565E-1,3.86793E-2,8.039369E-2,7.341705E-2,2.8999364E-1,8.052464E-2,7.8890786E-2,0E0,0E0,0E0,0E0,0E0,0E0,0E0,0E0,0E0,0E0,0E0,0E0],"parents":[2147483647,0,0,1,1,2,2,3,3,5,5,6,6,7,7,8,8,9,9,10,10,11,11,12,12],"right_children":[2,4,6,8,-1,10,12,14,16,18,20,22,24,-1,-1,-1,-1,-1,-1,-1,-1,-1,-1,-1,-1],"split_conditions":[2.7272728E-1,7.8070176E-1,1E0,3.6789298E-1,7.248564E-3,4.1430095E-1,7.664573E-1,1.375E-1,4.376459E-1,6.086956E-1,2.3692414E-1,3.2258064E-1,3.25E-1,-0E0,-1.0262806E-2,5.1083234E-3,-5.0355713E-3,-3.9613675E-3,5.592127E-3,-7.946849E-5,1.6244913E-2,-0E0,-9.782416E-3,1.3222656E-2,-0E0],"split_indices":[37,32,14,17,0,18,7,23,18,19,2,4,25,0,0,0,0,0,0,0,0,0,0,0,0],"split_type":[0,0,0,0,0,0,0,0,0,0,0,0,0,0,0,0,0,0,0,0,0,0,0,0,0],"sum_hessian":[1.34E2,5.8E1,7.6E1,5.5E1,3E0,4.8E1,2.8E1,3.9E1,1.6E1,1.8E1,3E1,2.2E1,6E0,3E0,3.6E1,8E0,8E0,1.2E1,6E0,3E0,2.7E1,4E0,1.8E1,3E0,3E0],"tree_param":{"num_deleted":"0","num_feature":"49","num_nodes":"25","size_leaf_vector":"1"}},{"base_weights":[-0E0,-2.7416104E-2,8.2963206E-2,-6.2243532E-2,5.9968665E-2,-1.3565501E-2,1.9433847E-1,-7.321915E-2,1.3049984E-3,-1.0649855E-2,1.2785916E-1,7.526856E-3,-7.826073E-3,-0E0,2.5983188E-1,-7.6391366E-3,-0E0,-5.78204E-3,-0E0,-0E0,1.3294779E-2,2.4671394E-2,-0E0],"categories":[],"categories_nodes":[],"categories_segments":[],"categories_sizes":[],"default_left":[0,1,0,1,1,1,0,0,0,0,0,0,0,0,1,0,0,0,0,0,0,0,0],"id":11,"left_children":[1,3,5,7,9,11,13,15,-1,17,19,-1,-1,-1,21,-1,-1,-1,-1,-1,-1,-1,-1],"loss_changes":[2.7100998E-1,2.9772452E-1,4.0743548E-1,9.378275E-2,1.7639181E-1,1.5633918E-1,2.733848E-1,8.975467E-2,0E0,3.5432037E-2,9.745836E-2,0E0,0E0,0E0,7.339513E-2,0E0,0E0,0E0,0E0,0E0,0E0,0E0,0E0],"parents":[2147483647,0,0,1,1,2,2,3,3,4,4,5,5,6,6,7,7,9,9,10,10,14,14],"right_children":[2,4,6,8,10,12,14,16,-1,18,20,-1,-1,-1,22,-1,-1,-1,-1,-1,-1,-1,-1],"split_conditions":[6.086956E-1,6.04773E-1,8.077652E-1,4.5454547E-1,2.3692414E-1,6.5217394E-1,1.7391305E-1,4E-1,1.3049984E-3,7.6717114E-1,3.3734939E-1,7.526856E-3,-7.826073E-3,-0E0,1.3605442E-2,-7.6391366E-3,-0E0,-5.78204E-3,-0E0,-0E0,1.3294779E-2,2.4671394E-2,-0E0],"split_indices":[19,26,7,37,2,19,17,33,0,26,1,0,0,0,20,0,0,0,0,0,0,0,0],"split_type":[0,0,0,0,0,0,0,0,0,0,0,0,0,0,0,0,0,0,0,0,0,0,0],"sum_hessian":[1.2E2,9.3E1,2.7E1,7.1E1,2.2E1,1.3E1,1.4E1,6.8E1,3E0,8E0,1.4E1,3E0,1E1,3E0,1.1E1,4.9E1,1.9E1,5E0,3E0,3E0,1.1E1,8E0,3E0],"tree_param":{"num_deleted":"0","num_feature":"49","num_nodes":"23","size_leaf_vector":"1"}},{"base_weights":[2.3074849E-3,-2.5143638E-2,1.0772517E-1,-5.604155E-2,3.2112397E-2,1.9471931E-1,-0E0,-9.158062E-2,1.8349802E-3,1.4807083E-1,-0E0,1.8460248E-2,-0E0,-5.335191E-2,1.0135531E-1,-8.319791E-3,-0E0,-4.0949276E-3,5.9044906E-3,1.9543847E-2,-0E0,9.239612E-3,-3.4843006E-3,-5.280669E-3,-0E0,1.1289925E-2,-0E0],"categories":[],"categories_nodes":[],"categories_segments":[],"categories_sizes":[],"default_left":[1,0,1,1,0,1,0,1,0,0,0,0,0,0,0,0,0,0,0,0,0,0,0,0,0,0,0],"id":12,"left_children":[1,3,5,7,9,11,13,15,17,19,21,-1,-1,23,25,-1,-1,-1,-1,-1,-1,-1,-1,-1,-1,-1,-1],"loss_changes":[4.2290637E-1,1.9424215E-1,2.4690366E-1,1.9330415E-1,1.6535732E-1,8.5561275E-2,1.13493875E-1,6.734508E-2,1.1045012E-1,1.6076465E-1,1.0653117E-1,0E0,0E0,3.5461374E-3,1.739683E-2,0E0,0E0,0E0,0E0,0E0,0E0,0E0,0E0,0E0,0E0,0E0,0E0],"parents":[2147483647,0,0,1,1,2,2,3,3,4,4,5,5,6,6,7,7,8,8,9,9,10,10,13,13,14,14],"right_children":[2,4,6,8,10,12,14,16,18,20,22,-1,-1,24,26,-1,-1,-1,-1,-1,-1,-1,-1,-1,-1,-1,-1],"split_conditions":[5.7043076E-1,4E-1,4.638219E-3,1.6765285E-2,3.802198E-1,5.6777245E-1,4.5274726E-1,4.8351648E-1,3.1542057E-1,4E0,3.9130434E-1,1.8460248E-2,-0E0,7.85681E-1,2.9761905E-2,-8.319791E-3,-0E0,-4.0949276E-3,5.9044906E-3,1.9543847E-2,-0E0,9.239612E-3,-3.4843006E-3,-5.280669E-3,-0E0,1.1289925E-2,-0E0],"split_indices":[26,33,20,22,31,18,31,31,16,9,3,0,0,26,20,0,0,0,0,0,0,0,0,0,0,0,0],"split_type":[0,0,0,0,0,0,0,0,0,0,0,0,0,0,0,0,0,0,0,0,0,0,0,0,0,0,0],"sum_hessian":[1.28E2,9.9E1,2.9E1,7E1,2.9E1,1.4E1,1.5E1,4.8E1,2.2E1,7E0,2.2E1,1.1E1,3E0,9E0,6E0,4.3E1,5E0,9E0,1.3E1,4E0,3E0,3E0,1.9E1,6E0,3E0,3E0,3E0],"tree_param":{"num_deleted":"0","num_feature":"49","num_nodes":"27","size_leaf_vector":"1"}},{"base_weights":[-0E0,-2.672684E-2,9.5192924E-2,-6.8930805E-2,1.7851662E-2,-0E0,1.6758378E-1,-1.0067032E-1,4.7205064E-2,-2.646135E-3,1.3602363E-1,-0E0,-2.6392383E-3,1.7695963E-2,-0E0,-0E0,-8.71851E-3,1.1120302E-2,-1.5611648E-5,5.2271686E-3,-3.0767769E-3,-0E0,2.1097217E-2],"categories":[],"categories_nodes":[],"categories_segments":[],"categories_sizes":[],"default_left":[1,0,0,1,0,0,1,0,1,0,1,0,0,0,0,0,0,0,0,0,0,0,0],"id":13,"left_children":[1,3,5,7,9,11,13,15,17,19,21,-1,-1,-1,-1,-1,-1,-1,-1,-1,-1,-1,-1],"loss_changes":[3.4114018E-1,2.1049541E-1,2.6175135E-1,2.4265832E-1,1.71566E-1,9.795344E-3,2.4926567E-1,3.612873E-2,1.1297135E-1,7.680438E-2,2.3224999E-1,0E0,0E0,0E0,0E0,0E0,0E0,0E0,0E0,0E0,0E0,0E0,0E0],"parents":[2147483647,0,0,1,1,2,2,3,3,4,4,5,5,6,6,7,7,8,8,9,9,10,10],"right_children":[2,4,6,8,10,12,14,16,18,20,22,-1,-1,-1,-1,-1,-1,-1,-1,-1,-1,-1,-1],"split_conditions":[5.9701204E-1,1E0,2.7272728E-1,7.3333335E-1,4.6487603E-1,4.1121495E-1,7.875E-1,2.4844721E-1,2.4601026E-1,7.92011E-2,4.1160816E-1,-0E0,-2.6392383E-3,1.7695963E-2,-0E0,-0E0,-8.71851E-3,1.1120302E-2,-1.5611648E-5,5.2271686E-3,-3.0767769E-3,-0E0,2.1097217E-2],"split_indices":[26,48,37,35,34,16,35,19,6,34,2,0,0,0,0,0,0,0,0,0,0,0,0],"split_type":[0,0,0,0,0,0,0,0,0,0,0,0,0,0,0,0,0,0,0,0,0,0,0],"sum_hessian":[1.23E2,9.5E1,2.8E1,5.4E1,4.1E1,1.1E1,1.7E1,4.6E1,8E0,3.3E1,8E0,4E0,7E0,1.4E1,3E0,4E0,4.2E1,5E0,3E0,6E0,2.7E1,4E0,4E0],"tree_param":{"num_deleted":"0","num_feature":"49","num_nodes":"23","size_leaf_vector":"1"}},{"base_weights":[3.212784E-3,9.417359E-2,-2.9056603E-2,-0E0,1.2583034E-1,2.3262126E-2,-6.644289E-2,-0E0,1.7028445E-1,-1.8103266E-2,1.0072576E-1,-8.7639645E-2,-0E0,3.301681E-3,-5.1872164E-4,1.8449444E-2,-0E0,-4.8077484E-3,7.665441E-4,1.771686E-2,-0E0,-8.692527E-3,-0E0,-1.8522769E-3,6.3167545E-3],"categories":[],"categories_nodes":[],"categories_segments":[],"categories_sizes":[],"default_left":[0,0,0,0,0,0,1,0,1,0,0,1,0,0,0,0,0,0,0,0,0,0,0,0,0],"id":14,"left_children":[1,3,5,-1,7,9,11,13,15,17,19,21,23,-1,-1,-1,-1,-1,-1,-1,-1,-1,-1,-1,-1],"loss_changes":[4.0200216E-1,1.6269091E-1,1.9876587E-1,0E0,1.4709786E-1,1.5070052E-1,1.0494307E-1,8.852823E-3,2.6621038E-1,4.849851E-2,1.8098322E-1,9.945071E-2,4.2232297E-2,0E0,0E0,0E0,0E0,0E0,0E0,0E0,0E0,0E0,0E0,0E0,0E0],"parents":[2147483647,0,0,1,1,2,2,4,4,5,5,6,6,7,7,8,8,9,9,10,10,11,11,12,12],"right_children":[2,4,6,-1,8,10,12,14,16,18,20,22,24,-1,-1,-1,-1,-1,-1,-1,-1,-1,-1,-1,-1],"split_conditions":[4E-1,1.7391305E-1,4.0036395E-2,-0E0,4E-1,5.30303E-1,3.3333334E-1,3.7139952E-1,2.8985508E-2,5.508982E-1,3.8102084E-1,5.217391E-1,2.6666668E-1,3.301681E-3,-5.1872164E-4,1.8449444E-2,-0E0,-4.8077484E-3,7.665441E-4,1.771686E-2,-0E0,-8.692527E-3,-0E0,-1.8522769E-3,6.3167545E-3],"split_indices":[8,17,30,0,5,34,41,7,36,27,16,3,33,0,0,0,0,0,0,0,0,0,0,0,0],"split_type":[0,0,0,0,0,0,0,0,0,0,0,0,0,0,0,0,0,0,0,0,0,0,0,0,0],"sum_hessian":[1.22E2,3.5E1,8.7E1,6E0,2.9E1,3.1E1,5.6E1,9E0,2E1,1.7E1,1.4E1,4.5E1,1.1E1,3E0,6E0,1.5E1,5E0,1.3E1,4E0,5E0,9E0,3.7E1,8E0,7E0,4E0],"tree_param":{"num_deleted":"0","num_feature":"49","num_nodes":"25","size_leaf_vector":"1"}},{"base_weights":[-0E0,-3.213919E-2,4.6643417E-2,-8.946455E-2,2.4173113E-2,-1.3422029E-2,1.2552473E-1,-0E0,-1.1213874E-1,1.0308618E-1,-1.0686042E-2,1.8068414E-2,-5.2448258E-2,1.791452E-1,-1.2073993E-3,-1.0048412E-2,-0E0,-0E0,1.1921759E-2,-4.5330734E-3,3.1849488E-3,-0E0,9.114392E-3,-5.3303274E-3,-0E0,-0E0,1.7754506E-2],"categories":[],"categories_nodes":[],"categories_segments":[],"categories_sizes":[],"default_left":[0,1,1,0,1,0,1,0,0,0,0,1,1,0,0,0,0,0,0,0,0,0,0,0,0,0,0],"id":15,"left_children":[1,3,5,7,9,11,13,-1,15,17,19,21,23,25,-1,-1,-1,-1,-1,-1,-1,-1,-1,-1,-1,-1,-1],"loss_changes":[1.9723779E-1,2.72624E-1,3.2475123E-1,7.424292E-2,1.4193188E-1,5.5953834E-2,2.985528E-1,0E0,2.3566574E-2,8.488169E-2,6.169451E-2,7.4288994E-2,1.7703202E-2,2.4693125E-1,0E0,0E0,0E0,0E0,0E0,0E0,0E0,0E0,0E0,0E0,0E0,0E0,0E0],"parents":[2147483647,0,0,1,1,2,2,3,3,4,4,5,5,6,6,8,8,9,9,10,10,11,11,12,12,13,13],"right_children":[2,4,6,8,10,12,14,-1,16,18,20,22,24,26,-1,-1,-1,-1,-1,-1,-1,-1,-1,-1,-1,-1,-1],"split_conditions":[1E0,5.0873107E-1,3E-1,2.8797644E-1,3.043478E-1,4E-1,1.4814815E-1,-0E0,8.181818E-1,3.0194104E-1,5.7575756E-1,3.3069733E-1,4.0816326E-2,3.782621E-1,-1.2073993E-3,-1.0048412E-2,-0E0,-0E0,1.1921759E-2,-4.5330734E-3,3.1849488E-3,-0E0,9.114392E-3,-5.3303274E-3,-0E0,-0E0,1.7754506E-2],"split_indices":[48,26,25,2,3,8,40,0,0,16,34,16,20,2,0,0,0,0,0,0,0,0,0,0,0,0,0],"split_type":[0,0,0,0,0,0,0,0,0,0,0,0,0,0,0,0,0,0,0,0,0,0,0,0,0,0,0],"sum_hessian":[1.25E2,7.1E1,5.4E1,3.9E1,3.2E1,2.8E1,2.6E1,9E0,3E1,1.3E1,1.9E1,9E0,1.9E1,2.1E1,5E0,2.5E1,5E0,4E0,9E0,1.5E1,4E0,5E0,4E0,1.5E1,4E0,3E0,1.8E1],"tree_param":{"num_deleted":"0","num_feature":"49","num_nodes":"27","size_leaf_vector":"1"}},{"base_weights":[1.369223E-2,-1.06569845E-2,7.825504E-2,-4.4178285E-2,3.8723294E-2,-5.85858E-2,1.3987967E-1,-7.223494E-2,5.4962635E-3,-1.7875914E-2,8.5796885E-2,-6.4196903E-3,-0E0,1.7702207E-1,-0E0,-7.3011117E-3,-0E0,-4.399676E-3,9.625811E-3,-4.047073E-3,-0E0,1.0668642E-2,-0E0,-0E0,1.8275494E-2],"categories":[],"categories_nodes":[],"categories_segments":[],"categories_sizes":[],"default_left":[0,0,0,0,1,1,1,1,0,0,1,0,0,0,0,0,0,0,0,0,0,0,0,0,0],"id":16,"left_children":[1,3,5,7,9,11,13,15,17,19,21,-1,-1,23,-1,-1,-1,-1,-1,-1,-1,-1,-1,-1,-1],"loss_changes":[2.2568545E-1,1.4519341E-1,3.8591474E-1,1.1360437E-1,1.142934E-1,1.3760272E-2,2.2776741E-1,6.714934E-2,1.5703548E-1,1.2159639E-2,1.4775096E-1,0E0,0E0,2.8115952E-1,0E0,0E0,0E0,0E0,0E0,0E0,0E0,0E0,0E0,0E0,0E0],"parents":[2147483647,0,0,1,1,2,2,3,3,4,4,5,5,6,6,7,7,8,8,9,9,10,10,13,13],"right_children":[2,4,6,8,10,12,14,16,18,20,22,-1,-1,24,-1,-1,-1,-1,-1,-1,-1,-1,-1,-1,-1],"split_conditions":[3.6789298E-1,4E-1,2.8E-1,4.3853343E-1,1.3893436E-1,5.3892213E-1,3.0612245E-2,1.1565151E-2,2.9069768E-2,1E0,2.857143E-1,-6.4196903E-3,-0E0,4E-1,-0E0,-7.3011117E-3,-0E0,-4.399676E-3,9.625811E-3,-4.047073E-3,-0E0,1.0668642E-2,-0E0,-0E0,1.8275494E-2],"split_indices":[17,33,43,16,2,27,20,46,28,13,29,0,0,5,0,0,0,0,0,0,0,0,0,0,0],"split_type":[0,0,0,0,0,0,0,0,0,0,0,0,0,0,0,0,0,0,0,0,0,0,0,0,0],"sum_hessian":[1.19E2,8.2E1,3.7E1,5.5E1,2.7E1,9E0,2.8E1,4.1E1,1.4E1,8E0,1.9E1,6E0,3E0,2.4E1,4E0,3.3E1,8E0,7E0,7E0,4E0,4E0,1.5E1,4E0,5E0,1.9E1],"tree_param":{"num_deleted":"0","num_feature":"49","num_nodes":"25","size_leaf_vector":"1"}},{"base_weights":[-0E0,-2.3177166E-2,6.809832E-2,-4.911562E-2,6.489166E-2,1.1761841E-1,-4.5429775E-3,-8.3373465E-2,-0E0,-0E0,1.6539648E-1,-0E0,1.7305255E-1,-0E0,-7.987398E-3,1.1327304E-3,-5.610975E-3,-3.947473E-3,-0E0,1.616619E-2,-0E0,-0E0,1.576969E-2],"categories":[],"categories_nodes":[],"categories_segments":[],"categories_sizes":[],"default_left":[1,1,1,0,0,0,0,0,0,1,0,0,0,0,0,0,0,0,0,0,0,0,0],"id":17,"left_children":[1,3,5,7,9,11,-1,13,15,17,19,-1,21,-1,-1,-1,-1,-1,-1,-1,-1,-1,-1],"loss_changes":[1.9230238E-1,2.2463892E-1,2.2930433E-1,1.2193997E-1,1.9355235E-1,2.2314423E-1,0E0,6.902009E-2,5.048793E-2,1.9478181E-2,1.22869015E-2,0E0,5.2711368E-2,0E0,0E0,0E0,0E0,0E0,0E0,0E0,0E0,0E0,0E0],"parents":[2147483647,0,0,1,1,2,2,3,3,4,4,5,5,7,7,8,8,9,9,10,10,12,12],"right_children":[2,4,6,8,10,12,-1,14,16,18,20,-1,22,-1,-1,-1,-1,-1,-1,-1,-1,-1,-1],"split_conditions":[5.7043076E-1,7.3333335E-1,7.708333E-1,1E0,7.096774E-1,4.5454547E-1,-4.5429775E-3,1.0355029E-2,4E-1,3E-1,8.041667E-1,-0E0,3.414427E-1,-0E0,-7.987398E-3,1.1327304E-3,-5.610975E-3,-3.947473E-3,-0E0,1.616619E-2,-0E0,-0E0,1.576969E-2],"split_indices":[26,35,35,48,4,0,0,22,25,25,35,0,7,0,0,0,0,0,0,0,0,0,0],"split_type":[0,0,0,0,0,0,0,0,0,0,0,0,0,0,0,0,0,0,0,0,0,0,0],"sum_hessian":[1.25E2,9.7E1,2.8E1,8E1,1.7E1,2.3E1,5E0,4.4E1,3.6E1,9E0,8E0,6E0,1.7E1,7E0,3.7E1,2.9E1,7E0,6E0,3E0,5E0,3E0,3E0,1.4E1],"tree_param":{"num_deleted":"0","num_feature":"49","num_nodes":"23","size_leaf_vector":"1"}},{"base_weights":[-0E0,-2.1271706E-2,4.9638506E-2,-0E0,-6.386851E-2,1.0030928E-1,-3.0318655E-2,-5.311409E-2,3.4152508E-2,-9.271772E-3,-0E0,-0E0,1.3489363E-1,-0E0,-4.9051465E-3,-6.8000383E-3,-0E0,-2.153849E-3,7.845176E-3,-0E0,1.7097116E-3,-0E0,1.3357274E-2],"categories":[],"categories_nodes":[],"categories_segments":[],"categories_sizes":[],"default_left":[0,0,1,0,1,0,0,0,0,0,0,0,0,0,0,0,0,0,0,0,0,0,0],"id":18,"left_children":[1,3,5,7,9,11,13,15,17,-1,19,-1,21,-1,-1,-1,-1,-1,-1,-1,-1,-1,-1],"loss_changes":[1.4285344E-1,8.7088525E-2,2.1124043E-1,1.063873E-1,1.2875606E-1,1.7124501E-1,2.848483E-2,4.6311866E-2,1.8918332E-1,0E0,4.5673656E-3,0E0,8.4448904E-2,0E0,0E0,0E0,0E0,0E0,0E0,0E0,0E0,0E0,0E0],"parents":[2147483647,0,0,1,1,2,2,3,3,4,4,5,5,6,6,7,7,8,8,10,10,12,12],"right_children":[2,4,6,8,10,12,14,16,18,-1,20,-1,22,-1,-1,-1,-1,-1,-1,-1,-1,-1,-1],"split_conditions":[3.6789298E-1,6E-1,1.512605E-2,7.971015E-2,6.1728396E-2,4.5454547E-1,4.409938E-1,9.948468E-1,2.1052632E-1,-9.271772E-3,9.3023255E-2,-0E0,1E0,-0E0,-4.9051465E-3,-6.8000383E-3,-0E0,-2.153849E-3,7.845176E-3,-0E0,1.7097116E-3,-0E0,1.3357274E-2],"split_indices":[17,8,38,36,40,0,19,7,32,0,47,0,10,0,0,0,0,0,0,0,0,0,0],"split_type":[0,0,0,0,0,0,0,0,0,0,0,0,0,0,0,0,0,0,0,0,0,0,0],"sum_hessian":[1.25E2,8.5E1,4E1,5.6E1,2.9E1,2.8E1,1.2E1,2E1,3.6E1,1.7E1,1.2E1,4E0,2.4E1,3E0,9E0,1.3E1,7E0,1.5E1,2.1E1,4E0,8E0,6E0,1.8E1],"tree_param":{"num_deleted":"0","num_feature":"49","num_nodes":"23","size_leaf_vector":"1"}},{"base_weights":[-2.182269E-5,-3.970552E-2,3.172606E-2,-6.592737E-2,3.282891E-2,1.0265083E-1,-0E0,-7.590675E-2,-0E0,-0E0,9.7962834E-2,-0E0,1.640717E-2,-8.187385E-3,2.2810679E-2,-0E0,-6.6129044E-3,-0E0,5.344952E-4,-0E0,1.075489E-2,-2.7484653E-4,3.1750686E-3,-3.3478786E-3,7.7093765E-3],"categories":[],"categories_nodes":[],"categories_segments":[],"categories_sizes":[],"default_left":[0,1,0,1,0,0,0,0,0,0,0,0,0,0,0,0,0,0,0,0,0,0,0,0,0],"id":19,"left_children":[1,3,5,7,9,11,13,15,17,-1,19,21,-1,-1,23,-1,-1,-1,-1,-1,-1,-1,-1,-1,-1],"loss_changes":[1.627334E-1,1.4070308E-1,1.4733167E-1,3.9030626E-2,7.235986E-2,1.6781195E-1,1.14037976E-1,2.876997E-2,2.2319153E-4,0E0,2.2068009E-2,9.557225E-3,0E0,0E0,2.1605693E-1,0E0,0E0,0E0,0E0,0E0,0E0,0E0,0E0,0E0,0E0],"parents":[2147483647,0,0,1,1,2,2,3,3,4,4,5,5,6,6,7,7,8,8,10,10,11,11,14,14],"right_children":[2,4,6,8,10,12,14,16,18,-1,20,22,-1,-1,24,-1,-1,-1,-1,-1,-1,-1,-1,-1,-1],"split_conditions":[3.2456142E-1,7.470713E-1,3.802198E-1,5.426982E-1,4.2028984E-1,3.5164836E-1,4.6865836E-1,2.615589E-1,6.2673265E-1,-0E0,1.9563271E-1,4.761905E-2,1.640717E-2,-8.187385E-3,4.8192772E-1,-0E0,-6.6129044E-3,-0E0,5.344952E-4,-0E0,1.075489E-2,-2.7484653E-4,3.1750686E-3,-3.3478786E-3,7.7093765E-3],"split_indices":[32,2,31,18,36,31,7,7,6,0,6,21,0,0,1,0,0,0,0,0,0,0,0,0,0],"split_type":[0,0,0,0,0,0,0,0,0,0,0,0,0,0,0,0,0,0,0,0,0,0,0,0,0],"sum_hessian":[1.22E2,6.1E1,6.1E1,5E1,1.1E1,1.8E1,4.3E1,4.4E1,6E0,4E0,7E0,1.1E1,7E0,7E0,3.6E1,3E0,4.1E1,3E0,3E0,3E0,4E0,7E0,4E0,1.6E1,2E1],"tree_param":{"num_deleted":"0","num_feature":"49","num_nodes":"25","size_leaf_vector":"1"}},{"base_weights":[8.382483E-3,-6.3536346E-2,2.6671754E-2,-6.400898E-3,-0E0,4.941866E-2,-5.996292E-2,5.5329585E-3,1.3147648E-1,-0E0,-7.053578E-3,-3.7753552E-3,4.801965E-3,-0E0,1.4773237E-2],"categories":[],"categories_nodes":[],"categories_segments":[],"categories_sizes":[],"default_left":[0,1,1,0,0,1,0,1,0,0,0,0,0,0,0],"id":20,"left_children":[1,3,5,-1,-1,7,9,11,13,-1,-1,-1,-1,-1,-1],"loss_changes":[1.5332086E-1,3.045813E-2,2.1545756E-1,0E0,0E0,2.6134753E-1,5.6066915E-2,2.0170392E-1,2.3211807E-1,0E0,0E0,0E0,0E0,0E0,0E0],"parents":[2147483647,0,0,1,1,2,2,5,5,6,6,7,7,8,8],"right_children":[2,4,6,-1,-1,8,10,12,14,-1,-1,-1,-1,-1,-1],"split_conditions":[1.6722408E-1,4E-1,7.271339E-1,-6.400898E-3,-0E0,5.1497006E-1,3.3333334E-1,2.3692414E-1,1.8181819E-1,-0E0,-7.053578E-3,-3.7753552E-3,4.801965E-3,-0E0,1.4773237E-2],"split_indices":[17,33,6,0,0,27,40,2,37,0,0,0,0,0,0],"split_type":[0,0,0,0,0,0,0,0,0,0,0,0,0,0,0],"sum_hessian":[1.26E2,1.9E1,1.07E2,1.6E1,3E0,9E1,1.7E1,6.4E1,2.6E1,3E0,1.4E1,2.8E1,3.6E1,7E0,1.9E1],"tree_param":{"num_deleted":"0","num_feature":"49","num_nodes":"15","size_leaf_vector":"1"}},{"base_weights":[-8.375703E-3,2.7061252E-2,-3.9267432E-2,-2.6816078E-2,9.808771E-2,-0E0,-8.121715E-2,-6.58085E-2,2.111548E-3,-2.1699753E-2,1.9346929E-1,-3.8521197E-2,1.04983434E-1,-0E0,-9.51365E-2,-6.465705E-3,-0E0,-0E0,-5.1760213E-3,-0E0,1.7713452E-2,-0E0,-4.7990857E-3,1.238258E-2,-0E0,-0E0,-9.675282E-3],"categories":[],"categories_nodes":[],"categories_segments":[],"categories_sizes":[],"default_left":[0,0,0,1,0,0,0,1,0,0,0,0,0,0,0,0,0,0,0,0,0,0,0,0,0,0,0],"id":21,"left_children":[1,3,5,7,9,11,13,15,-1,17,19,21,23,-1,25,-1,-1,-1,-1,-1,-1,-1,-1,-1,-1,-1,-1],"loss_changes":[1.406881E-1,2.3223229E-1,1.3809553E-1,7.712591E-2,3.913447E-1,1.7232308E-1,5.7075888E-2,2.6631586E-2,0E0,2.8309328E-2,1.0217428E-3,4.630227E-2,8.335966E-2,0E0,5.7935894E-2,0E0,0E0,0E0,0E0,0E0,0E0,0E0,0E0,0E0,0E0,0E0,0E0],"parents":[2147483647,0,0,1,1,2,2,3,3,4,4,5,5,6,6,7,7,9,9,10,10,11,11,12,12,14,14],"right_children":[2,4,6,8,10,12,14,16,-1,18,20,22,24,-1,26,-1,-1,-1,-1,-1,-1,-1,-1,-1,-1,-1,-1],"split_conditions":[1.7006803E-2,3.78E-1,4.5341614E-1,6.8917346E-1,3.8709676E-1,5.123967E-1,1.5595727E-1,1.5402299E-1,2.111548E-3,4.347826E-1,6.4102565E-3,1.13467656E-1,6.6181606E-1,-0E0,2.173913E-1,-6.465705E-3,-0E0,-0E0,-5.1760213E-3,-0E0,1.7713452E-2,-0E0,-4.7990857E-3,1.238258E-2,-0E0,-0E0,-9.675282E-3],"split_indices":[20,43,19,26,4,34,6,39,0,3,22,42,26,0,17,0,0,0,0,0,0,0,0,0,0,0,0],"split_type":[0,0,0,0,0,0,0,0,0,0,0,0,0,0,0,0,0,0,0,0,0,0,0,0,0,0,0],"sum_hessian":[1.19E2,4.8E1,7.1E1,2.4E1,2.4E1,3.5E1,3.6E1,1.9E1,5E0,9E0,1.5E1,2.5E1,1E1,4E0,3.2E1,1.6E1,3E0,3E0,6E0,4E0,1.1E1,3E0,2.2E1,7E0,3E0,9E0,2.3E1],"tree_param":{"num_deleted":"0","num_feature":"49","num_nodes":"27","size_leaf_vector":"1"}},{"base_weights":[3.0203909E-3,-1.8314987E-2,4.3739613E-2,6.473246E-2,-4.8079696E-2,-0E0,1.2041653E-1,-0E0,1.2700224E-1,-9.608876E-2,-5.4363557E-3,-4.2613253E-2,1.2801737E-2,1.7757379E-2,-0E0,1.2788951E-2,-0E0,-9.063378E-3,-0E0,-5.326786E-3,-0E0,-5.1612384E-3,-0E0,5.041665E-3,-0E0,-1.9883334E-4,1.0745415E-3],"categories":[],"categories_nodes":[],"categories_segments":[],"categories_sizes":[],"default_left":[0,0,1,0,1,1,1,0,1,0,0,0,0,0,1,0,0,0,0,0,0,0,0,0,0,0,0],"id":22,"left_children":[1,3,5,7,9,11,13,-1,15,17,19,21,23,-1,25,-1,-1,-1,-1,-1,-1,-1,-1,-1,-1,-1,-1],"loss_changes":[1.2638453E-1,1.9070517E-1,2.321061E-1,1.22319855E-1,7.7170506E-2,3.200415E-2,2.577302E-1,0E0,3.6447585E-2,4.7944546E-2,4.312368E-2,1.6730485E-2,4.073793E-2,0E0,1.6607756E-3,0E0,0E0,0E0,0E0,0E0,0E0,0E0,0E0,0E0,0E0,0E0,0E0],"parents":[2147483647,0,0,1,1,2,2,3,3,4,4,5,5,6,6,8,8,9,9,10,10,11,11,12,12,14,14],"right_children":[2,4,6,8,10,12,14,-1,16,18,20,22,24,-1,26,-1,-1,-1,-1,-1,-1,-1,-1,-1,-1,-1,-1],"split_conditions":[1E0,3.968254E-3,3E-1,2.68E-1,2.651515E-1,1.183432E-2,1.4492754E-2,-0E0,2.615589E-1,5.6832075E-1,5.5E-1,7.096774E-1,1.95E-1,1.7757379E-2,3.4642446E-1,1.2788951E-2,-0E0,-9.063378E-3,-0E0,-5.326786E-3,-0E0,-5.1612384E-3,-0E0,5.041665E-3,-0E0,-1.9883334E-4,1.0745415E-3],"split_indices":[48,20,25,43,34,22,36,0,7,26,48,4,25,0,2,0,0,0,0,0,0,0,0,0,0,0,0],"split_type":[0,0,0,0,0,0,0,0,0,0,0,0,0,0,0,0,0,0,0,0,0,0,0,0,0,0,0],"sum_hessian":[1.27E2,7.6E1,5.1E1,1.5E1,6.1E1,3E1,2.1E1,5E0,1E1,2.2E1,3.9E1,1.4E1,1.6E1,1E1,1.1E1,7E0,3E0,1.9E1,3E0,8E0,3.1E1,9E0,5E0,9E0,7E0,4E0,7E0],"tree_param":{"num_deleted":"0","num_feature":"49","num_nodes":"27","size_leaf_vector":"1"}},{"base_weights":[-0E0,4.856402E-2,-1.7177468E-2,-3.3134207E-2,1.16411746E-1,-0E0,-6.1092697E-2,-0E0,-4.4182327E-2,-0E0,1.6925853E-1,1.7359553E-2,-6.53343E-3,-0E0,-7.994165E-2,-4.331974E-3,-0E0,-0E0,1.5168486E-2,-0E0,4.6350593E-3,-0E0,-7.0130215E-3],"categories":[],"categories_nodes":[],"categories_segments":[],"categories_sizes":[],"default_left":[0,0,1,0,0,1,0,0,1,0,0,0,0,0,0,0,0,0,0,0,0,0,0],"id":23,"left_children":[1,3,5,7,9,11,13,-1,15,-1,17,19,-1,-1,21,-1,-1,-1,-1,-1,-1,-1,-1],"loss_changes":[1.1558945E-1,2.544456E-1,7.617862E-2,6.9568027E-3,1.904315E-1,9.811696E-2,5.5261806E-2,0E0,2.9647518E-3,0E0,2.3584902E-2,6.919659E-2,0E0,0E0,9.298041E-3,0E0,0E0,0E0,0E0,0E0,0E0,0E0,0E0],"parents":[2147483647,0,0,1,1,2,2,3,3,4,4,5,5,6,6,8,8,10,10,11,11,14,14],"right_children":[2,4,6,8,10,12,14,-1,16,-1,18,20,-1,-1,22,-1,-1,-1,-1,-1,-1,-1,-1],"split_conditions":[4.043956E-1,1.3116371E-2,3.598021E-1,2.1052632E-1,2.4173553E-1,8.041667E-1,4E-1,-0E0,3.8271606E-1,-0E0,3E0,3.653356E-1,-6.53343E-3,-0E0,3.7037037E-2,-4.331974E-3,-0E0,-0E0,1.5168486E-2,-0E0,4.6350593E-3,-0E0,-7.0130215E-3],"split_indices":[31,22,6,32,34,35,8,0,40,0,9,16,0,0,40,0,0,0,0,0,0,0,0],"split_type":[0,0,0,0,0,0,0,0,0,0,0,0,0,0,0,0,0,0,0,0,0,0,0],"sum_hessian":[1.29E2,3.5E1,9.4E1,1.3E1,2.2E1,6.8E1,2.6E1,3E0,1E1,6E0,1.6E1,5.8E1,1E1,3E0,2.3E1,7E0,3E0,3E0,1.3E1,3.4E1,2.4E1,3E0,2E1],"tree_param":{"num_deleted":"0","num_feature":"49","num_nodes":"23","size_leaf_vector":"1"}},{"base_weights":[-0E0,-3.894433E-2,2.6492843E-2,2.451662E-2,-6.377583E-2,4.9581796E-2,-4.991539E-2,6.2012286E-3,-0E0,-8.356033E-2,-0E0,-7.975984E-3,8.0013014E-2,-0E0,-5.211563E-3,-0E0,-7.7598267E-3,3.710161E-3,-1.2455723E-3,-3.0274624E-3,-0E0,6.47456E-5,1.2370032E-2],"categories":[],"categories_nodes":[],"categories_segments":[],"categories_sizes":[],"default_left":[0,0,1,0,1,0,1,0,0,0,0,0,1,0,0,0,0,0,0,0,0,0,0],"id":24,"left_children":[1,3,5,7,9,11,13,-1,-1,15,17,19,21,-1,-1,-1,-1,-1,-1,-1,-1,-1,-1],"loss_changes":[1.2883647E-1,9.6820764E-2,1.4944625E-1,2.463357E-2,6.0740277E-2,1.5815204E-1,1.3552539E-2,0E0,0E0,1.1779979E-2,1.2451037E-2,2.307361E-2,2.2342074E-1,0E0,0E0,0E0,0E0,0E0,0E0,0E0,0E0,0E0,0E0],"parents":[2147483647,0,0,1,1,2,2,3,3,4,4,5,5,6,6,9,9,10,10,11,11,12,12],"right_children":[2,4,6,8,10,12,14,-1,-1,16,18,20,22,-1,-1,-1,-1,-1,-1,-1,-1,-1,-1],"split_conditions":[5.541667E-1,1.7964073E-1,5.6831664E-1,3E-1,5.16129E-1,2.8678322E-1,3.9751554E-1,6.2012286E-3,-0E0,1.2327416E-2,3.2934132E-1,4.8387095E-1,3.3333334E-1,-0E0,-5.211563E-3,-0E0,-7.7598267E-3,3.710161E-3,-1.2455723E-3,-3.0274624E-3,-0E0,6.47456E-5,1.2370032E-2],"split_indices":[35,27,6,5,4,6,19,0,0,22,27,4,5,0,0,0,0,0,0,0,0,0,0],"split_type":[0,0,0,0,0,0,0,0,0,0,0,0,0,0,0,0,0,0,0,0,0,0,0],"sum_hessian":[1.25E2,4.5E1,8E1,7E0,3.8E1,6.7E1,1.3E1,3E0,4E0,3E1,8E0,1.8E1,4.9E1,3E0,1E1,7E0,2.3E1,3E0,5E0,1.5E1,3E0,2.8E1,2.1E1],"tree_param":{"num_deleted":"0","num_feature":"49","num_nodes":"23","size_leaf_vector":"1"}},{"base_weights":[2.242294E-3,-3.598291E-2,2.5248244E-2,3.9265957E-3,-8.37498E-2,-0E0,9.074896E-2,-7.650015E-4,6.8542897E-3,-0E0,-9.32621E-2,-1.9402506E-2,9.3510516E-2,1.6401196E-1,-0E0,-0E0,-8.64945E-3,-4.792782E-3,1.7749626E-3,1.2662894E-2,-0E0,-0E0,1.5751027E-2,-8.30401E-5,-0E0],"categories":[],"categories_nodes":[],"categories_segments":[],"categories_sizes":[],"default_left":[0,0,1,0,0,1,1,0,0,0,0,0,0,0,0,0,0,0,0,0,0,0,0,0,0],"id":25,"left_children":[1,3,5,7,9,11,13,-1,-1,-1,15,17,19,21,23,-1,-1,-1,-1,-1,-1,-1,-1,-1,-1],"loss_changes":[1.07254975E-1,1.16823435E-1,1.1684513E-1,5.9546385E-2,1.4317527E-2,1.5224487E-1,2.0365606E-1,0E0,0E0,0E0,1.6067788E-2,1.158618E-1,1.4443643E-1,4.9814165E-2,6.4646792E-6,0E0,0E0,0E0,0E0,0E0,0E0,0E0,0E0,0E0,0E0],"parents":[2147483647,0,0,1,1,2,2,3,3,4,4,5,5,6,6,10,10,11,11,12,12,13,13,14,14],"right_children":[2,4,6,8,10,12,14,-1,-1,-1,16,18,20,22,24,-1,-1,-1,-1,-1,-1,-1,-1,-1,-1],"split_conditions":[3.3333334E-1,4.857143E-1,4E-1,4.9309663E-2,3.2873806E-2,5.3333336E-1,4.1758242E-1,-7.650015E-4,6.8542897E-3,-0E0,1.09195404E-1,4.9541286E-1,7.6666665E-1,3.1629094E-1,6E-1,-0E0,-8.64945E-3,-4.792782E-3,1.7749626E-3,1.2662894E-2,-0E0,-0E0,1.5751027E-2,-8.30401E-5,-0E0],"split_indices":[41,31,33,22,42,5,31,0,0,0,39,24,5,2,33,0,0,0,0,0,0,0,0,0,0],"split_type":[0,0,0,0,0,0,0,0,0,0,0,0,0,0,0,0,0,0,0,0,0,0,0,0,0],"sum_hessian":[1.24E2,3.8E1,8.6E1,1.6E1,2.2E1,6.7E1,1.9E1,1E1,6E0,3E0,1.9E1,5.4E1,1.3E1,1.2E1,7E0,4E0,1.5E1,3.3E1,2.1E1,9E0,4E0,3E0,9E0,4E0,3E0],"tree_param":{"num_deleted":"0","num_feature":"49","num_nodes":"25","size_leaf_vector":"1"}},{"base_weights":[2.8398284E-3,-8.645862E-3,7.751662E-2,-4.5525458E-2,1.30283E-2,1.145838E-1,-0E0,2.8616046E-3,-6.687599E-2,-1.5733851E-2,9.1373555E-2,1.67415E-1,-0E0,-6.6462224E-3,-0E0,-3.3861147E-3,1.4863142E-5,-0E0,1.1263422E-2,1.6580192E-2,-0E0],"categories":[],"categories_nodes":[],"categories_segments":[],"categories_sizes":[],"default_left":[1,0,1,0,1,1,0,0,1,1,1,0,0,0,0,0,0,0,0,0,0],"id":26,"left_children":[1,3,5,7,9,11,-1,-1,13,15,17,19,-1,-1,-1,-1,-1,-1,-1,-1,-1],"loss_changes":[1.3870151E-1,9.7368255E-2,1.04135856E-1,1.0017959E-1,1.6688433E-1,1.5605894E-1,0E0,0E0,6.7530274E-2,3.717314E-2,1.3035655E-1,8.010021E-2,0E0,0E0,0E0,0E0,0E0,0E0,0E0,0E0,0E0],"parents":[2147483647,0,0,1,1,2,2,3,3,4,4,5,5,8,8,9,9,10,10,11,11],"right_children":[2,4,6,8,10,12,-1,-1,14,16,18,20,-1,-1,-1,-1,-1,-1,-1,-1,-1],"split_conditions":[5.483871E-1,9.9154127E-1,5.652174E-1,1.9760479E-1,5.1497006E-1,2.7210884E-2,-0E0,2.8616046E-3,5.85034E-2,4.9541286E-1,5.9166664E-1,7.6666665E-1,-0E0,-6.6462224E-3,-0E0,-3.3861147E-3,1.4863142E-5,-0E0,1.1263422E-2,1.6580192E-2,-0E0],"split_indices":[4,6,3,27,27,20,0,0,20,24,35,5,0,0,0,0,0,0,0,0,0],"split_type":[0,0,0,0,0,0,0,0,0,0,0,0,0,0,0,0,0,0,0,0,0],"sum_hessian":[1.18E2,9.8E1,2E1,4.4E1,5.4E1,1.6E1,4E0,4E0,4E1,3.6E1,1.8E1,1.2E1,4E0,3.5E1,5E0,2.4E1,1.2E1,5E0,1.3E1,9E0,3E0],"tree_param":{"num_deleted":"0","num_feature":"49","num_nodes":"21","size_leaf_vector":"1"}},{"base_weights":[-5.3820433E-3,-3.4479007E-2,1.7434532E-2,-5.2692875E-2,2.2372117E-2,5.930117E-2,-2.5812432E-2,-7.562064E-2,-0E0,6.1544213E-3,-0E0,2.6330345E-3,1.4469898E-1,1.2272054E-3,-5.9287097E-2,-7.0391605E-3,-0E0,3.6225973E-3,-2.0182037E-3,7.746094E-3,-0E0,-0E0,1.6114226E-2,-6.7673996E-3,-0E0],"categories":[],"categories_nodes":[],"categories_segments":[],"categories_sizes":[],"default_left":[0,1,0,1,0,0,0,1,1,0,0,0,1,0,1,0,0,0,0,0,0,0,0,0,0],"id":27,"left_children":[1,3,5,7,9,11,13,15,17,-1,-1,19,21,-1,23,-1,-1,-1,-1,-1,-1,-1,-1,-1,-1],"loss_changes":[9.536669E-2,8.689518E-2,1.356845E-1,9.629235E-2,4.184051E-2,1.1430603E-1,6.0986735E-2,6.009668E-2,2.6374094E-2,0E0,0E0,4.6675485E-2,7.33318E-2,0E0,5.147694E-2,0E0,0E0,0E0,0E0,0E0,0E0,0E0,0E0,0E0,0E0],"parents":[2147483647,0,0,1,1,2,2,3,3,4,4,5,5,6,6,7,7,8,8,11,11,12,12,14,14],"right_children":[2,4,6,8,10,12,14,16,18,-1,-1,20,22,-1,24,-1,-1,-1,-1,-1,-1,-1,-1,-1,-1],"split_conditions":[5.16129E-1,5.516529E-1,3.5E-1,6.04773E-1,6.443539E-1,2.6E-1,1.1627907E-2,4E-1,4E-1,6.1544213E-3,-0E0,3.3388537E-1,1.3333334E-1,1.2272054E-3,3.414427E-1,-7.0391605E-3,-0E0,3.6225973E-3,-2.0182037E-3,7.746094E-3,-0E0,-0E0,1.6114226E-2,-6.7673996E-3,-0E0],"split_indices":[4,34,25,26,26,25,28,33,33,0,0,6,33,0,7,0,0,0,0,0,0,0,0,0,0],"split_type":[0,0,0,0,0,0,0,0,0,0,0,0,0,0,0,0,0,0,0,0,0,0,0,0,0],"sum_hessian":[1.27E2,6.5E1,6.2E1,5.6E1,9E0,3.7E1,2.5E1,4.3E1,1.3E1,6E0,3E0,2.7E1,1E1,5E0,2E1,3.9E1,4E0,9E0,4E0,3E0,2.4E1,4E0,6E0,1.6E1,4E0],"tree_param":{"num_deleted":"0","num_feature":"49","num_nodes":"25","size_leaf_vector":"1"}},{"base_weights":[-0E0,1.4695835E-2,-4.595334E-2,-0E0,6.1153132E-2,-6.388667E-2,-0E0,-3.6288153E-2,5.189422E-2,1.262344E-1,-0E0,-0E0,-6.586797E-3,-6.072663E-3,-0E0,-0E0,7.929294E-3,-0E0,1.3317179E-2,-2.185E-3,3.0723205E-3],"categories":[],"categories_nodes":[],"categories_segments":[],"categories_sizes":[],"default_left":[1,1,1,1,0,0,0,1,0,0,0,0,0,0,0,0,0,0,0,0,0],"id":28,"left_children":[1,3,5,7,9,11,-1,13,15,17,19,-1,-1,-1,-1,-1,-1,-1,-1,-1,-1],"loss_changes":[8.830759E-2,9.145828E-2,4.2625993E-2,1.2520643E-1,1.2683567E-1,1.1822142E-2,0E0,6.042925E-2,1.0237604E-1,3.807828E-2,1.9275747E-2,0E0,0E0,0E0,0E0,0E0,0E0,0E0,0E0,0E0,0E0],"parents":[2147483647,0,0,1,1,2,2,3,3,4,4,5,5,7,7,8,8,9,9,10,10],"right_children":[2,4,6,8,10,12,-1,14,16,18,20,-1,-1,-1,-1,-1,-1,-1,-1,-1,-1],"split_conditions":[1.512605E-2,1.455869E-2,1.310282E-1,6.4102565E-3,4.043956E-1,3.450755E-1,-0E0,2.651515E-1,2.9069768E-2,3.4285715E-1,3.0625E-1,-0E0,-6.586797E-3,-6.072663E-3,-0E0,-0E0,7.929294E-3,-0E0,1.3317179E-2,-2.185E-3,3.0723205E-3],"split_indices":[38,30,30,22,31,16,0,34,28,31,23,0,0,0,0,0,0,0,0,0,0],"split_type":[0,0,0,0,0,0,0,0,0,0,0,0,0,0,0,0,0,0,0,0,0],"sum_hessian":[1.24E2,9.4E1,3E1,6.6E1,2.8E1,2.5E1,5E0,4.4E1,2.2E1,1.3E1,1.5E1,9E0,1.6E1,1.9E1,2.5E1,7E0,1.5E1,5E0,8E0,1E1,5E0],"tree_param":{"num_deleted":"0","num_feature":"49","num_nodes":"21","size_leaf_vector":"1"}},{"base_weights":[4.2435196E-3,-2.087124E-2,2.6744695E-2,-5.3138014E-2,9.548414E-3,9.759528E-2,-0E0,-7.645967E-2,-0E0,-2.300316E-3,6.852159E-2,1.3714358E-1,-0E0,-2.4950985E-2,4.844576E-2,-6.879811E-3,-0E0,8.474532E-3,-0E0,1.3194801E-2,-0E0,-5.3723017E-3,1.6452518E-3,1.0734457E-2,-0E0],"categories":[],"categories_nodes":[],"categories_segments":[],"categories_sizes":[],"default_left":[0,1,0,0,0,0,1,0,0,0,1,0,0,0,0,0,0,0,0,0,0,0,0,0,0],"id":29,"left_children":[1,3,5,7,9,11,13,15,-1,-1,17,19,-1,21,23,-1,-1,-1,-1,-1,-1,-1,-1,-1,-1],"loss_changes":[7.864785E-2,7.48314E-2,1.8970822E-1,7.353229E-2,7.12594E-2,1.4732978E-1,6.259715E-2,2.2749126E-2,0E0,0E0,5.7703733E-2,9.4688565E-2,0E0,1.1057704E-1,1.268353E-1,0E0,0E0,0E0,0E0,0E0,0E0,0E0,0E0,0E0,0E0],"parents":[2147483647,0,0,1,1,2,2,3,3,4,4,5,5,6,6,7,7,10,10,11,11,13,13,14,14],"right_children":[2,4,6,8,10,12,14,16,-1,-1,18,20,-1,22,24,-1,-1,-1,-1,-1,-1,-1,-1,-1,-1],"split_conditions":[5.555556E-1,9.447674E-3,1.4285714E-2,5.679367E-1,3.6363637E-1,5.451713E-1,3.2456142E-1,5.3333336E-1,-0E0,-2.300316E-3,6E-1,6.706587E-1,-0E0,4.169662E-1,4E-1,-6.879811E-3,-0E0,8.474532E-3,-0E0,1.3194801E-2,-0E0,-5.3723017E-3,1.6452518E-3,1.0734457E-2,-0E0],"split_indices":[41,28,20,16,0,16,32,33,0,0,5,27,0,16,25,0,0,0,0,0,0,0,0,0,0],"split_type":[0,0,0,0,0,0,0,0,0,0,0,0,0,0,0,0,0,0,0,0,0,0,0,0,0],"sum_hessian":[1.3E2,5.1E1,7.9E1,3.2E1,1.9E1,2.4E1,5.5E1,2.7E1,5E0,7E0,1.2E1,1.9E1,5E0,4.2E1,1.3E1,2.4E1,3E0,9E0,3E0,1.6E1,3E0,2.7E1,1.5E1,7E0,6E0],"tree_param":{"num_deleted":"0","num_feature":"49","num_nodes":"25","size_leaf_vector":"1"}},{"base_weights":[1.6604618E-3,-2.502939E-2,3.0133227E-2,-0E0,-6.920084E-2,7.110442E-2,-0E0,3.9950922E-2,-2.0611895E-2,-0E0,-6.5061846E-3,4.4224267E-3,1.36125935E-2,-5.2664787E-2,4.781912E-2,-0E0,7.5005535E-3,-2.9115924E-3,-0E0,4.003995E-3,-3.2622277E-4,-0E0,-6.7143994E-3,-0E0,7.201083E-3],"categories":[],"categories_nodes":[],"categories_segments":[],"categories_sizes":[],"default_left":[0,0,0,0,0,1,0,0,0,0,0,0,0,0,0,0,0,0,0,0,0,0,0,0,0],"id":30,"left_children":[1,3,5,7,9,11,13,15,17,-1,-1,19,-1,21,23,-1,-1,-1,-1,-1,-1,-1,-1,-1,-1],"loss_changes":[9.677228E-2,7.0896775E-2,8.9022376E-2,3.3287846E-2,2.0315856E-2,1.0935658E-1,1.0855186E-1,6.396246E-2,1.5820486E-2,0E0,0E0,3.2314666E-2,0E0,4.7418494E-2,4.6922557E-2,0E0,0E0,0E0,0E0,0E0,0E0,0E0,0E0,0E0,0E0],"parents":[2147483647,0,0,1,1,2,2,3,3,4,4,5,5,6,6,7,7,8,8,11,11,13,13,14,14],"right_children":[2,4,6,8,10,12,14,16,18,-1,-1,20,-1,22,24,-1,-1,-1,-1,-1,-1,-1,-1,-1,-1],"split_conditions":[2.7272728E-1,4.0608698E-1,5.4545456E-1,6.642402E-2,1.0919018E-2,5.16129E-1,4.251088E-1,2.795031E-1,5.844005E-1,-0E0,-6.5061846E-3,3.7349397E-1,1.36125935E-2,2.072177E-1,6.7469877E-1,-0E0,7.5005535E-3,-2.9115924E-3,-0E0,4.003995E-3,-3.2622277E-4,-0E0,-6.7143994E-3,-0E0,7.201083E-3],"split_indices":[37,18,0,30,30,4,18,19,26,0,0,1,0,26,1,0,0,0,0,0,0,0,0,0,0],"split_type":[0,0,0,0,0,0,0,0,0,0,0,0,0,0,0,0,0,0,0,0,0,0,0,0,0],"sum_hessian":[1.2E2,5.3E1,6.7E1,3.3E1,2E1,2.8E1,3.9E1,1.3E1,2E1,3E0,1.7E1,2.1E1,7E0,1.9E1,2E1,5E0,8E0,1.7E1,3E0,1.1E1,1E1,6E0,1.3E1,1E1,1E1],"tree_param":{"num_deleted":"0","num_feature":"49","num_nodes":"25","size_leaf_vector":"1"}},{"base_weights":[-1.4091957E-3,-3.311901E-2,1.732957E-2,-0E0,-6.013655E-2,-0E0,9.320418E-2,-2.409287E-2,6.661064E-2,-0E0,-6.535546E-2,-2.6697736E-2,5.6675892E-2,1.1552527E-2,-0E0,-4.492023E-3,-0E0,7.61467E-3,-0E0,-0E0,-5.674744E-3,1.4275736E-4,-4.8606917E-3,-0E0,8.01371E-3],"categories":[],"categories_nodes":[],"categories_segments":[],"categories_sizes":[],"default_left":[0,0,1,1,0,1,0,1,1,0,0,1,0,0,0,0,0,0,0,0,0,0,0,0,0],"id":31,"left_children":[1,3,5,7,9,11,13,15,17,-1,19,21,23,-1,-1,-1,-1,-1,-1,-1,-1,-1,-1,-1,-1],"loss_changes":[8.807158E-2,6.0762003E-2,1.338428E-1,5.154213E-2,5.8372617E-3,8.0969736E-2,1.1472604E-1,4.1989215E-2,1.4426444E-2,0E0,3.4438372E-3,7.43299E-2,7.222932E-2,0E0,0E0,0E0,0E0,0E0,0E0,0E0,0E0,0E0,0E0,0E0,0E0],"parents":[2147483647,0,0,1,1,2,2,3,3,4,4,5,5,6,6,7,7,8,8,10,10,11,11,12,12],"right_children":[2,4,6,8,10,12,14,16,18,-1,20,22,24,-1,-1,-1,-1,-1,-1,-1,-1,-1,-1,-1,-1],"split_conditions":[2.7272728E-1,2.173913E-2,7.291667E-1,6.146789E-1,7.3002756E-2,5.623853E-1,8.041667E-1,1.183432E-2,1.42998025E-2,-0E0,3.3846155E-1,4.6583852E-1,1.3893436E-1,1.1552527E-2,-0E0,-4.492023E-3,-0E0,7.61467E-3,-0E0,-0E0,-5.674744E-3,1.4275736E-4,-4.8606917E-3,-0E0,8.01371E-3],"split_indices":[37,36,35,24,34,24,35,22,22,0,31,19,2,0,0,0,0,0,0,0,0,0,0,0,0],"split_type":[0,0,0,0,0,0,0,0,0,0,0,0,0,0,0,0,0,0,0,0,0,0,0,0,0],"sum_hessian":[1.31E2,5.8E1,7.3E1,2.5E1,3.3E1,5.7E1,1.6E1,1.8E1,7E0,4E0,2.9E1,4.4E1,1.3E1,1.1E1,5E0,1.5E1,3E0,4E0,3E0,4E0,2.5E1,1.7E1,2.7E1,3E0,1E1],"tree_param":{"num_deleted":"0","num_feature":"49","num_nodes":"25","size_leaf_vector":"1"}},{"base_weights":[1.1525073E-3,-2.3999916E-2,2.6232587E-2,-0E0,-5.8599E-3,6.3083425E-2,-1.8058952E-2,-2.2095367E-2,5.5489518E-2,-0E0,9.371414E-2,-0E0,-4.411103E-2,-0E0,-2.8470191E-3,-0E0,8.11213E-3,-2.5543554E-3,1.4197283E-3,-0E0,9.359502E-3,-0E0,4.669473E-3,-0E0,-5.9654694E-3],"categories":[],"categories_nodes":[],"categories_segments":[],"categories_sizes":[],"default_left":[0,0,0,0,0,0,0,0,0,0,0,1,0,0,0,0,0,0,0,0,0,0,0,0,0],"id":32,"left_children":[1,3,5,7,-1,9,11,13,15,17,19,21,23,-1,-1,-1,-1,-1,-1,-1,-1,-1,-1,-1,-1],"loss_changes":[8.185942E-2,7.620381E-2,1.45572E-1,5.223326E-2,0E0,1.0277985E-1,3.529536E-2,1.4391102E-2,3.19479E-2,1.2009882E-2,1.0712162E-1,1.703436E-2,4.9774498E-2,0E0,0E0,0E0,0E0,0E0,0E0,0E0,0E0,0E0,0E0,0E0,0E0],"parents":[2147483647,0,0,1,1,2,2,3,3,5,5,6,6,7,7,8,8,9,9,10,10,11,11,12,12],"right_children":[2,4,6,8,-1,10,12,14,16,18,20,22,24,-1,-1,-1,-1,-1,-1,-1,-1,-1,-1,-1,-1],"split_conditions":[2.7272728E-1,4.0608698E-1,6E-1,6.1009175E-1,-5.8599E-3,5.875E-1,2.1885914E-1,1.8115941E-2,3.450755E-1,4.1121495E-1,3.3333334E-1,4.8387095E-1,3.782621E-1,-0E0,-2.8470191E-3,-0E0,8.11213E-3,-2.5543554E-3,1.4197283E-3,-0E0,9.359502E-3,-0E0,4.669473E-3,-0E0,-5.9654694E-3],"split_indices":[37,18,8,24,0,35,26,44,16,16,5,4,2,0,0,0,0,0,0,0,0,0,0,0,0],"split_type":[0,0,0,0,0,0,0,0,0,0,0,0,0,0,0,0,0,0,0,0,0,0,0,0,0],"sum_hessian":[1.24E2,5.2E1,7.2E1,3.4E1,1.8E1,4.5E1,2.7E1,2.3E1,1.1E1,1.4E1,3.1E1,6E0,2.1E1,4E0,1.9E1,6E0,5E0,7E0,7E0,4E0,2.7E1,3E0,3E0,6E0,1.5E1],"tree_param":{"num_deleted":"0","num_feature":"49","num_nodes":"25","size_leaf_vector":"1"}},{"base_weights":[-0E0,-1.5811311E-2,5.2799158E-2,-4.019838E-2,-0E0,9.838087E-2,-1.4042101E-3,-5.389073E-2,-0E0,-4.393175E-2,2.2124594E-2,-0E0,1.6277298E-1,-0E0,-5.0262297E-3,-5.385138E-3,-0E0,4.215315E-3,-1.0404398E-3,1.7062675E-2,-0E0],"categories":[],"categories_nodes":[],"categories_segments":[],"categories_sizes":[],"default_left":[1,1,0,1,0,0,0,0,0,1,1,0,0,0,0,0,0,0,0,0,0],"id":33,"left_children":[1,3,5,7,9,11,-1,13,-1,15,17,-1,19,-1,-1,-1,-1,-1,-1,-1,-1],"loss_changes":[1.0051904E-1,5.0697997E-2,1.304502E-1,5.183751E-2,4.999838E-2,1.4118084E-1,0E0,3.405571E-2,0E0,2.5424492E-2,6.738761E-2,0E0,6.497291E-2,0E0,0E0,0E0,0E0,0E0,0E0,0E0,0E0],"parents":[2147483647,0,0,1,1,2,2,3,3,4,4,5,5,7,7,9,9,10,10,12,12],"right_children":[2,4,6,8,10,12,-1,14,-1,16,18,-1,20,-1,-1,-1,-1,-1,-1,-1,-1],"split_conditions":[5.483871E-1,4.4036698E-1,7.3493975E-1,5.86785E-2,2.2222222E-1,2.5996482E-1,-1.4042101E-3,9.174312E-2,-0E0,4.1758242E-1,2.173913E-2,-0E0,6.666667E-1,-0E0,-5.0262297E-3,-5.385138E-3,-0E0,4.215315E-3,-1.0404398E-3,1.7062675E-2,-0E0],"split_indices":[4,24,1,22,41,18,0,24,0,31,36,0,5,0,0,0,0,0,0,0,0],"split_type":[0,0,0,0,0,0,0,0,0,0,0,0,0,0,0,0,0,0,0,0,0],"sum_hessian":[1.24E2,9.9E1,2.5E1,4.5E1,5.4E1,1.9E1,6E0,4.2E1,3E0,1.3E1,4.1E1,8E0,1.1E1,3E0,3.9E1,1E1,3E0,2.9E1,1.2E1,7E0,4E0],"tree_param":{"num_deleted":"0","num_feature":"49","num_nodes":"21","size_leaf_vector":"1"}},{"base_weights":[-0E0,-2.4024857E-2,2.6359577E-2,-0E0,-6.309225E-2,5.7358507E-2,-1.6191287E-2,-4.078286E-3,2.7103951E-2,-0E0,-9.048118E-2,-0E0,1.0010838E-1,-0E0,-4.9286536E-3,-0E0,-1.3853472E-3,5.662779E-3,-0E0,-0E0,-8.049673E-3,-3.6024633E-3,7.651063E-3,1.0141496E-2,-0E0,-0E0,2.4921393E-3],"categories":[],"categories_nodes":[],"categories_segments":[],"categories_sizes":[],"default_left":[1,0,0,0,0,0,0,0,0,0,0,1,1,1,0,0,0,0,0,0,0,0,0,0,0,0,0],"id":34,"left_children":[1,3,5,7,9,11,13,15,17,-1,19,21,23,25,-1,-1,-1,-1,-1,-1,-1,-1,-1,-1,-1,-1,-1],"loss_changes":[8.291663E-2,8.305576E-2,1.1081612E-1,1.2821259E-2,7.706526E-2,8.918056E-2,4.7108307E-2,4.7651916E-3,4.7637146E-2,0E0,1.6131744E-2,1.2391119E-1,9.6955836E-2,6.793018E-3,0E0,0E0,0E0,0E0,0E0,0E0,0E0,0E0,0E0,0E0,0E0,0E0,0E0],"parents":[2147483647,0,0,1,1,2,2,3,3,4,4,5,5,6,6,7,7,8,8,10,10,11,11,12,12,13,13],"right_children":[2,4,6,8,10,12,14,16,18,-1,20,22,24,26,-1,-1,-1,-1,-1,-1,-1,-1,-1,-1,-1,-1,-1],"split_conditions":[4.251497E-1,2.7667984E-1,6E-1,3.2456142E-1,1.4942528E-1,3.95399E-1,4.0697675E-2,1.8895349E-2,6.1445785E-1,-0E0,9.848485E-2,7.291667E-1,1.7006803E-2,8.6419754E-2,-4.9286536E-3,-0E0,-1.3853472E-3,5.662779E-3,-0E0,-0E0,-8.049673E-3,-3.6024633E-3,7.651063E-3,1.0141496E-2,-0E0,-0E0,2.4921393E-3],"split_indices":[27,17,8,32,39,16,28,28,1,0,34,35,20,40,0,0,0,0,0,0,0,0,0,0,0,0,0],"split_type":[0,0,0,0,0,0,0,0,0,0,0,0,0,0,0,0,0,0,0,0,0,0,0,0,0,0,0],"sum_hessian":[1.26E2,6.1E1,6.5E1,3.3E1,2.8E1,4.4E1,2.1E1,1.8E1,1.5E1,6E0,2.2E1,2.2E1,2.2E1,9E0,1.2E1,3E0,1.5E1,1E1,5E0,3E0,1.9E1,1.4E1,8E0,1.9E1,3E0,4E0,5E0],"tree_param":{"num_deleted":"0","num_feature":"49","num_nodes":"27","size_leaf_vector":"1"}},{"base_weights":[-0E0,-1.6317898E-2,2.3416188E-2,-2.9804148E-2,6.961853E-3,9.728085E-2,-0E0,-0E0,-4.9929965E-2,4.7674505E-3,-0E0,1.0224616E-2,-0E0,2.1045743E-2,-3.5371173E-2,2.773905E-3,-1.7707414E-3,-5.399115E-3,-0E0,-0E0,-1.2365149E-3,-3.2521226E-4,5.465086E-3,-0E0,-5.56195E-3],"categories":[],"categories_nodes":[],"categories_segments":[],"categories_sizes":[],"default_left":[0,0,0,0,0,1,0,0,1,0,1,0,0,0,0,0,0,0,0,0,0,0,0,0,0],"id":35,"left_children":[1,3,5,7,9,11,13,15,17,-1,19,-1,-1,21,23,-1,-1,-1,-1,-1,-1,-1,-1,-1,-1],"loss_changes":[4.7903206E-2,3.66387E-2,9.615876E-2,4.0376674E-2,2.4035444E-2,4.0321745E-2,3.1456273E-2,2.2756018E-2,4.8525162E-2,0E0,2.1501128E-3,0E0,0E0,5.997918E-2,2.7067348E-2,0E0,0E0,0E0,0E0,0E0,0E0,0E0,0E0,0E0,0E0],"parents":[2147483647,0,0,1,1,2,2,3,3,4,4,5,5,6,6,7,7,8,8,10,10,13,13,14,14],"right_children":[2,4,6,8,10,12,14,16,18,-1,20,-1,-1,22,24,-1,-1,-1,-1,-1,-1,-1,-1,-1,-1],"split_conditions":[4E-1,6.086956E-1,3.802198E-1,3.726708E-1,2.293578E-1,2.5925925E-1,8.041667E-1,1E0,1.1565151E-2,4.7674505E-3,6.5217394E-1,1.0224616E-2,-0E0,2.7272728E-1,2.1666667E-1,2.773905E-3,-1.7707414E-3,-5.399115E-3,-0E0,-0E0,-1.2365149E-3,-3.2521226E-4,5.465086E-3,-0E0,-5.56195E-3],"split_indices":[33,19,31,19,24,40,35,13,46,0,19,0,0,37,25,0,0,0,0,0,0,0,0,0,0],"split_type":[0,0,0,0,0,0,0,0,0,0,0,0,0,0,0,0,0,0,0,0,0,0,0,0,0],"sum_hessian":[1.24E2,7.7E1,4.7E1,6.2E1,1.5E1,1.1E1,3.6E1,2.5E1,3.7E1,5E0,1E1,8E0,3E0,2.1E1,1.5E1,1E1,1.5E1,3E1,7E0,3E0,7E0,8E0,1.3E1,7E0,8E0],"tree_param":{"num_deleted":"0","num_feature":"49","num_nodes":"25","size_leaf_vector":"1"}},{"base_weights":[1.272579E-3,-2.8966082E-2,2.2422194E-2,-6.0145754E-2,-0E0,3.974462E-2,-1.0345641E-2,-5.450601E-3,-0E0,-7.960368E-3,3.7479647E-3,-0E0,8.335482E-2,-0E0,-2.7704984E-2,-1.7393231E-3,-0E0,5.688558E-3,-1.6021798E-3,-0E0,8.921392E-3,-0E0,-2.8538783E-3],"categories":[],"categories_nodes":[],"categories_segments":[],"categories_sizes":[],"default_left":[0,0,1,0,1,1,0,0,0,0,0,0,0,0,0,0,0,0,0,0,0,0,0],"id":36,"left_children":[1,3,5,7,9,11,13,-1,-1,15,-1,17,19,-1,21,-1,-1,-1,-1,-1,-1,-1,-1],"loss_changes":[7.8608565E-2,4.7124304E-2,6.3769415E-2,4.996009E-3,1.4309903E-2,1.11132935E-1,1.08009465E-2,0E0,0E0,5.0044153E-3,0E0,5.7538547E-2,1.079506E-1,0E0,2.2225427E-3,0E0,0E0,0E0,0E0,0E0,0E0,0E0,0E0],"parents":[2147483647,0,0,1,1,2,2,3,3,4,4,5,5,6,6,9,9,11,11,12,12,14,14],"right_children":[2,4,6,8,10,12,14,-1,-1,16,-1,18,20,-1,22,-1,-1,-1,-1,-1,-1,-1,-1],"split_conditions":[3.3333334E-1,5.0898206E-1,2.173913E-2,6.987952E-1,3.956044E-1,2.1929824E-1,3.3333334E-1,-5.450601E-3,-0E0,4.8162735E-1,3.7479647E-3,3.968254E-3,2.7906978E-1,-0E0,2.0175439E-1,-1.7393231E-3,-0E0,5.688558E-3,-1.6021798E-3,-0E0,8.921392E-3,-0E0,-2.8538783E-3],"split_indices":[41,27,36,1,31,32,5,0,0,2,0,20,47,0,32,0,0,0,0,0,0,0,0],"split_type":[0,0,0,0,0,0,0,0,0,0,0,0,0,0,0,0,0,0,0,0,0,0,0],"sum_hessian":[1.24E2,4.1E1,8.3E1,2.1E1,2E1,6.4E1,1.9E1,1.7E1,4E0,1.6E1,4E0,3.5E1,2.9E1,4E0,1.5E1,1.1E1,5E0,7E0,2.8E1,5E0,2.4E1,5E0,1E1],"tree_param":{"num_deleted":"0","num_feature":"49","num_nodes":"23","size_leaf_vector":"1"}},{"base_weights":[-2.9899601E-3,-1.881841E-2,1.884076E-2,-3.262863E-2,6.272742E-3,9.234437E-2,-2.1493195E-3,-4.1789476E-2,-0E0,-0E0,5.6269307E-2,1.0381068E-2,-0E0,2.8413432E-3,-4.8063133E-2,-0E0,-4.270339E-3,-0E0,1.1115723E-3,8.4043555E-3,-0E0,-0E0,-5.2182786E-3],"categories":[],"categories_nodes":[],"categories_segments":[],"categories_sizes":[],"default_left":[0,1,0,1,0,1,0,0,0,0,1,0,0,0,0,0,0,0,0,0,0,0,0],"id":37,"left_children":[1,3,5,7,9,11,13,15,17,-1,19,-1,-1,-1,21,-1,-1,-1,-1,-1,-1,-1,-1],"loss_changes":[4.2854596E-2,4.3041002E-2,1.05665505E-1,3.5879664E-2,3.091475E-2,4.900048E-2,5.6380928E-2,3.9891504E-2,9.653069E-4,0E0,4.5592707E-2,0E0,0E0,0E0,2.418485E-2,0E0,0E0,0E0,0E0,0E0,0E0,0E0,0E0],"parents":[2147483647,0,0,1,1,2,2,3,3,4,4,5,5,6,6,7,7,8,8,10,10,14,14],"right_children":[2,4,6,8,10,12,14,16,18,-1,20,-1,-1,-1,22,-1,-1,-1,-1,-1,-1,-1,-1],"split_conditions":[5.3512394E-1,7.664573E-1,2.1696253E-2,5.3918046E-1,1.3333334E-1,6E-1,4.5934066E-1,3.2258064E-1,7.971015E-2,-0E0,5.248023E-1,1.0381068E-2,-0E0,2.8413432E-3,1.0869565E-1,-0E0,-4.270339E-3,-0E0,1.1115723E-3,8.4043555E-3,-0E0,-0E0,-5.2182786E-3],"split_indices":[34,7,22,16,33,33,31,4,36,0,16,0,0,0,17,0,0,0,0,0,0,0,0],"split_type":[0,0,0,0,0,0,0,0,0,0,0,0,0,0,0,0,0,0,0,0,0,0,0],"sum_hessian":[1.2E2,8.3E1,3.7E1,6.6E1,1.7E1,1.2E1,2.5E1,6E1,6E0,9E0,8E0,8E0,4E0,8E0,1.7E1,1E1,5E1,3E0,3E0,5E0,3E0,3E0,1.4E1],"tree_param":{"num_deleted":"0","num_feature":"49","num_nodes":"23","size_leaf_vector":"1"}},{"base_weights":[-3.5402123E-4,-1.7553488E-2,2.0199528E-2,-3.574677E-2,2.174932E-3,7.121894E-2,-2.4599792E-3,-0E0,-5.0309848E-2,-0E0,3.4646887E-2,1.0606383E-1,-0E0,-5.999769E-2,3.0272583E-2,-2.2606188E-3,2.638138E-3,-4.998101E-3,-0E0,-0E0,-7.955742E-4,-0E0,4.1743726E-3,1.1869883E-2,-0E0,-0E0,-5.8530024E-3,7.1146516E-3,-0E0],"categories":[],"categories_nodes":[],"categories_segments":[],"categories_sizes":[],"default_left":[0,1,1,0,0,0,1,0,0,0,0,1,0,0,0,0,0,0,0,0,0,0,0,0,0,0,0,0,0],"id":38,"left_children":[1,3,5,7,9,11,13,15,17,19,21,23,-1,25,27,-1,-1,-1,-1,-1,-1,-1,-1,-1,-1,-1,-1,-1,-1],"loss_changes":[4.4635423E-2,4.7091097E-2,8.790931E-2,3.346899E-2,1.786892E-2,7.3477685E-2,6.934575E-2,1.806114E-2,3.0309513E-2,1.0878629E-3,1.4666503E-2,8.418389E-2,0E0,1.1990268E-2,4.3450154E-2,0E0,0E0,0E0,0E0,0E0,0E0,0E0,0E0,0E0,0E0,0E0,0E0,0E0,0E0],"parents":[2147483647,0,0,1,1,2,2,3,3,4,4,5,5,6,6,7,7,8,8,9,9,10,10,11,11,13,13,14,14],"right_children":[2,4,6,8,10,12,14,16,18,20,22,24,-1,26,28,-1,-1,-1,-1,-1,-1,-1,-1,-1,-1,-1,-1,-1,-1],"split_conditions":[4.9655646E-1,5.534204E-1,4.3491956E-2,4E-1,3E-1,6.626506E-1,1.910828E-2,5.3333336E-1,6.4777356E-1,3.1736526E-1,1.491228E-1,4.6405822E-2,-0E0,2.1375E-1,9.0756305E-2,-2.2606188E-3,2.638138E-3,-4.998101E-3,-0E0,-0E0,-7.955742E-4,-0E0,4.1743726E-3,1.1869883E-2,-0E0,-0E0,-5.8530024E-3,7.1146516E-3,-0E0],"split_indices":[34,2,6,8,23,1,30,35,26,27,32,30,0,23,38,0,0,0,0,0,0,0,0,0,0,0,0,0,0],"split_type":[0,0,0,0,0,0,0,0,0,0,0,0,0,0,0,0,0,0,0,0,0,0,0,0,0,0,0,0,0],"sum_hessian":[1.26E2,8.2E1,4.4E1,5.5E1,2.7E1,1.9E1,2.5E1,1.5E1,4E1,1.4E1,1.3E1,1.4E1,5E0,1.4E1,1.1E1,7E0,8E0,3.3E1,7E0,5E0,9E0,3E0,1E1,1E1,4E0,3E0,1.1E1,5E0,6E0],"tree_param":{"num_deleted":"0","num_feature":"49","num_nodes":"29","size_leaf_vector":"1"}},{"base_weights":[6.385811E-3,-9.45984E-3,3.9581943E-2,8.028959E-3,-4.85407E-2,-4.3538306E-3,7.0798844E-2,-0E0,3.783906E-2,-0E0,-5.6984525E-2,-1.9629286E-3,-0E0,9.127181E-2,-0E0,-1.8415031E-3,-0E0,5.6605665E-3,-0E0,-0E0,-5.4535912E-3,9.017422E-3,-0E0],"categories":[],"categories_nodes":[],"categories_segments":[],"categories_sizes":[],"default_left":[0,1,1,0,0,0,1,0,1,0,0,0,0,1,0,0,0,0,0,0,0,0,0],"id":39,"left_children":[1,3,5,7,9,11,13,15,17,-1,19,-1,-1,21,-1,-1,-1,-1,-1,-1,-1,-1,-1],"loss_changes":[7.998368E-2,7.161265E-2,1.02415934E-1,2.7231257E-2,1.8771462E-2,6.921248E-3,6.946714E-2,9.537564E-3,5.0037347E-2,0E0,1.27142295E-2,0E0,0E0,5.5010796E-2,0E0,0E0,0E0,0E0,0E0,0E0,0E0,0E0,0E0],"parents":[2147483647,0,0,1,1,2,2,3,3,4,4,5,5,6,6,7,7,8,8,10,10,13,13],"right_children":[2,4,6,8,10,12,14,16,18,-1,20,-1,-1,22,-1,-1,-1,-1,-1,-1,-1,-1,-1],"split_conditions":[1E0,1.9563271E-1,6.666667E-2,7.1666664E-1,1.3043478E-1,7.419355E-1,1.4492754E-2,6.1009175E-1,8.5E-1,-0E0,1.7875E-1,-1.9629286E-3,-0E0,3.02E-1,-0E0,-1.8415031E-3,-0E0,5.6605665E-3,-0E0,-0E0,-5.4535912E-3,9.017422E-3,-0E0],"split_indices":[48,6,33,35,3,4,44,24,35,0,23,0,0,43,0,0,0,0,0,0,0,0,0],"split_type":[0,0,0,0,0,0,0,0,0,0,0,0,0,0,0,0,0,0,0,0,0,0,0],"sum_hessian":[1.2E2,7.2E1,4.8E1,4.2E1,3E1,1.4E1,3.4E1,2.3E1,1.9E1,3E0,2.7E1,1E1,4E0,2.8E1,6E0,1.6E1,7E0,1.4E1,5E0,6E0,2.1E1,2.2E1,6E0],"tree_param":{"num_deleted":"0","num_feature":"49","num_nodes":"23","size_leaf_vector":"1"}},{"base_weights":[-8.05216E-3,-2.4474895E-2,1.3921847E-2,-3.2032236E-2,-0E0,-3.6564572E-3,4.4448473E-2,-4.1408326E-2,-0E0,-0E0,2.6902388E-4,-0E0,6.0119726E-2,-0E0,-4.091603E-3,-0E0,3.0032943E-3,-0E0,6.613049E-3],"categories":[],"categories_nodes":[],"categories_segments":[],"categories_sizes":[],"default_left":[0,1,0,1,0,0,0,1,0,0,0,0,0,0,0,0,0,0,0],"id":40,"left_children":[1,3,5,7,9,-1,11,13,15,-1,-1,-1,17,-1,-1,-1,-1,-1,-1],"loss_changes":[5.2149776E-2,3.0996408E-2,8.1704296E-2,3.862892E-2,5.6542078E-5,0E0,4.651186E-2,4.5672067E-2,9.865382E-3,0E0,0E0,0E0,6.2002786E-2,0E0,0E0,0E0,0E0,0E0,0E0],"parents":[2147483647,0,0,1,1,2,2,3,3,4,4,6,6,7,7,8,8,12,12],"right_children":[2,4,6,8,10,-1,12,14,16,-1,-1,-1,18,-1,-1,-1,-1,-1,-1],"split_conditions":[3.6789298E-1,6.122449E-2,2.8E-1,7.3333335E-1,2.5748503E-1,-3.6564572E-3,6.666667E-2,1.8562874E-1,7.096774E-1,-0E0,2.6902388E-4,-0E0,4E-1,-0E0,-4.091603E-3,-0E0,3.0032943E-3,-0E0,6.613049E-3],"split_indices":[17,20,43,35,27,0,33,27,4,0,0,0,5,0,0,0,0,0,0],"split_type":[0,0,0,0,0,0,0,0,0,0,0,0,0,0,0,0,0,0,0],"sum_hessian":[1.26E2,8.5E1,4.1E1,7.9E1,6E0,8E0,3.3E1,6.9E1,1E1,3E0,3E0,3E0,3E1,7E0,6.2E1,5E0,5E0,6E0,2.4E1],"tree_param":{"num_deleted":"0","num_feature":"49","num_nodes":"19","size_leaf_vector":"1"}},{"base_weights":[-1.5390717E-3,-3.3767622E-2,1.1822375E-2,-0E0,-4.518417E-2,-1.12179415E-2,4.8499595E-2,-0E0,-5.2387677E-2,-3.4657706E-2,-0E0,7.256053E-2,-0E0,-5.0781732E-3,-0E0,-0E0,-3.6374566E-3,-0E0,2.7504095E-3,-0E0,9.433515E-3],"categories":[],"categories_nodes":[],"categories_segments":[],"categories_sizes":[],"default_left":[0,0,1,0,0,1,1,0,1,0,0,0,0,0,0,0,0,0,0,0,0],"id":41,"left_children":[1,3,5,-1,7,9,11,-1,13,15,17,19,-1,-1,-1,-1,-1,-1,-1,-1,-1],"loss_changes":[6.689041E-2,3.3958446E-2,8.817839E-2,0E0,2.2692412E-2,2.7020011E-2,7.4392535E-2,0E0,2.8504066E-2,1.3050649E-2,1.5365904E-2,1.3742635E-1,0E0,0E0,0E0,0E0,0E0,0E0,0E0,0E0,0E0],"parents":[2147483647,0,0,1,1,2,2,4,4,5,5,6,6,8,8,9,9,10,10,11,11],"right_children":[2,4,6,-1,8,10,12,-1,14,16,18,20,-1,-1,-1,-1,-1,-1,-1,-1,-1],"split_conditions":[4.8192772E-1,1.0869565E-1,3.1629094E-1,-0E0,2.8644758E-1,6.875E-1,3.16E-1,-0E0,3.24E-1,4.347826E-1,6.2650603E-1,4.6865836E-1,-0E0,-5.0781732E-3,-0E0,-0E0,-3.6374566E-3,-0E0,2.7504095E-3,-0E0,9.433515E-3],"split_indices":[1,17,2,0,7,35,43,0,43,3,1,7,0,0,0,0,0,0,0,0,0],"split_type":[0,0,0,0,0,0,0,0,0,0,0,0,0,0,0,0,0,0,0,0,0],"sum_hessian":[1.26E2,4.7E1,7.9E1,5E0,4.2E1,4.1E1,3.8E1,3E0,3.9E1,2.5E1,1.6E1,3E1,8E0,3.3E1,6E0,5E0,2E1,5E0,1.1E1,1E1,2E1],"tree_param":{"num_deleted":"0","num_feature":"49","num_nodes":"21","size_leaf_vector":"1"}},{"base_weights":[-0E0,-6.5228716E-3,6.494584E-2,2.983344E-3,-2.7369253E-2,-0E0,8.81271E-3,-9.243542E-3,2.827745E-2,-5.316702E-2,-0E0,-0E0,-2.9823233E-3,7.211837E-3,-5.598006E-4,-5.265322E-3,-0E0,-0E0,2.3326096E-3],"categories":[],"categories_nodes":[],"categories_segments":[],"categories_sizes":[],"default_left":[0,0,0,0,1,0,0,0,1,1,0,0,0,0,0,0,0,0,0],"id":42,"left_children":[1,3,5,7,9,-1,-1,11,13,15,17,-1,-1,-1,-1,-1,-1,-1,-1],"loss_changes":[5.5551097E-2,3.5344E-2,4.6464276E-2,3.014215E-2,5.9234597E-2,0E0,0E0,2.3670634E-2,1.1922364E-1,2.6687019E-2,1.0202002E-2,0E0,0E0,0E0,0E0,0E0,0E0,0E0,0E0],"parents":[2147483647,0,0,1,1,2,2,3,3,4,4,7,7,8,8,9,9,10,10],"right_children":[2,4,6,8,10,-1,-1,12,14,16,18,-1,-1,-1,-1,-1,-1,-1,-1],"split_conditions":[7.826087E-1,4E-1,7.664573E-1,3.3086434E-1,1.7179215E-1,-0E0,8.81271E-3,4.939759E-1,3.7139952E-1,7.470713E-1,3.9256197E-1,-0E0,-2.9823233E-3,7.211837E-3,-5.598006E-4,-5.265322E-3,-0E0,-0E0,2.3326096E-3],"split_indices":[19,25,7,18,42,0,0,1,7,2,34,0,0,0,0,0,0,0,0],"split_type":[0,0,0,0,0,0,0,0,0,0,0,0,0,0,0,0,0,0,0],"sum_hessian":[1.24E2,1.14E2,1E1,6.3E1,5.1E1,4E0,6E0,3E1,3.3E1,3.3E1,1.8E1,1.3E1,1.7E1,1.6E1,1.7E1,2.7E1,6E0,8E0,1E1],"tree_param":{"num_deleted":"0","num_feature":"49","num_nodes":"19","size_leaf_vector":"1"}},{"base_weights":[4.005995E-3,-4.915255E-3,2.2022063E-2,1.0276534E-2,-2.9008402E-2,7.089538E-2,-0E0,-1.8368773E-3,5.0867632E-2,-5.577313E-2,1.824209E-3,-0E0,9.291984E-2,-8.430493E-3,1.840664E-2,6.7649353E-3,-0E0,-0E0,-5.577537E-3,-0E0,9.2457365E-3,-0E0,-1.7133229E-3,6.068651E-3,-0E0],"categories":[],"categories_nodes":[],"categories_segments":[],"categories_sizes":[],"default_left":[1,1,0,0,0,0,0,0,0,0,0,0,0,0,0,0,0,0,0,0,0,0,0,0,0],"id":43,"left_children":[1,3,5,7,9,11,13,-1,15,17,-1,-1,19,21,23,-1,-1,-1,-1,-1,-1,-1,-1,-1,-1],"loss_changes":[2.8217722E-2,3.33873E-2,6.185749E-2,5.4065373E-2,7.17237E-2,3.0406564E-2,7.214263E-3,0E0,3.4057844E-2,3.1700224E-2,0E0,0E0,2.604767E-2,8.417169E-3,2.944468E-2,0E0,0E0,0E0,0E0,0E0,0E0,0E0,0E0,0E0,0E0],"parents":[2147483647,0,0,1,1,2,2,3,3,4,4,5,5,6,6,8,8,9,9,12,12,13,13,14,14],"right_children":[2,4,6,8,10,12,14,-1,16,18,-1,-1,20,22,24,-1,-1,-1,-1,-1,-1,-1,-1,-1,-1],"split_conditions":[1.5625E-1,3.163192E-1,4E-1,2.0227008E-1,5.7988983E-1,3.163192E-1,5.344353E-1,-1.8368773E-3,7.6666665E-1,3.478261E-1,1.824209E-3,-0E0,2.9069768E-2,3.6144578E-1,2.6E-1,6.7649353E-3,-0E0,-0E0,-5.577537E-3,-0E0,9.2457365E-3,-0E0,-1.7133229E-3,6.068651E-3,-0E0],"split_indices":[23,16,8,26,34,16,34,0,5,19,0,0,28,1,25,0,0,0,0,0,0,0,0,0,0],"split_type":[0,0,0,0,0,0,0,0,0,0,0,0,0,0,0,0,0,0,0,0,0,0,0,0,0],"sum_hessian":[1.19E2,6.2E1,5.7E1,2.6E1,3.6E1,1.6E1,4.1E1,8E0,1.8E1,3E1,6E0,4E0,1.2E1,2.8E1,1.3E1,1E1,8E0,5E0,2.5E1,3E0,9E0,7E0,2.1E1,4E0,9E0],"tree_param":{"num_deleted":"0","num_feature":"49","num_nodes":"25","size_leaf_vector":"1"}},{"base_weights":[-0E0,1.4590596E-2,-1.2546783E-2,-1.1762248E-2,3.129636E-2,1.5286538E-2,-3.265313E-2,-0E0,-1.9635987E-3,-0E0,5.839079E-2,-0E0,3.772606E-3,-4.4516817E-2,-0E0,-2.110246E-3,-0E0,-0E0,5.5897497E-3,-4.203435E-3,-0E0],"categories":[],"categories_nodes":[],"categories_segments":[],"categories_sizes":[],"default_left":[1,0,0,0,0,0,1,0,0,0,0,0,0,0,0,0,0,0,0,0,0],"id":44,"left_children":[1,3,5,7,9,11,13,-1,-1,15,17,-1,-1,19,-1,-1,-1,-1,-1,-1,-1],"loss_changes":[2.3560181E-2,4.1320402E-2,4.0461056E-2,4.2750607E-3,6.2052038E-2,1.4519198E-2,3.1440377E-2,0E0,0E0,6.9580292E-3,3.05399E-2,0E0,0E0,1.9338481E-2,0E0,0E0,0E0,0E0,0E0,0E0,0E0],"parents":[2147483647,0,0,1,1,2,2,3,3,4,4,5,5,6,6,9,9,10,10,13,13],"right_children":[2,4,6,8,10,12,14,-1,-1,16,18,-1,-1,20,-1,-1,-1,-1,-1,-1,-1],"split_conditions":[3.968254E-3,1.8663912E-1,2.6605505E-1,2.8287748E-1,3.3333334E-1,8.5865825E-1,2.0473157E-1,-0E0,-1.9635987E-3,9.6176505E-1,3E0,-0E0,3.772606E-3,4.5238096E-2,-0E0,-2.110246E-3,-0E0,-0E0,5.5897497E-3,-4.203435E-3,-0E0],"split_indices":[20,34,24,18,41,7,30,0,0,6,9,0,0,20,0,0,0,0,0,0,0],"split_type":[0,0,0,0,0,0,0,0,0,0,0,0,0,0,0,0,0,0,0,0,0],"sum_hessian":[1.21E2,6.8E1,5.3E1,1.5E1,5.3E1,1.2E1,4.1E1,6E0,9E0,2.1E1,3.2E1,6E0,6E0,3.7E1,4E0,8E0,1.3E1,4E0,2.8E1,3.3E1,4E0],"tree_param":{"num_deleted":"0","num_feature":"49","num_nodes":"21","size_leaf_vector":"1"}},{"base_weights":[2.3807269E-3,-1.5753033E-2,1.7184744E-2,-0E0,-3.602338E-2,-0E0,5.3976912E-2,-0E0,9.775537E-4,-5.0527617E-2,-0E0,1.7261095E-2,-3.230026E-2,-0E0,7.488373E-2,-0E0,-4.980229E-3,-0E0,6.1248145E-3,-0E0,-4.4293166E-3,7.644414E-3,-0E0],"categories":[],"categories_nodes":[],"categories_segments":[],"categories_sizes":[],"default_left":[0,0,1,0,0,1,0,0,0,0,0,0,1,0,0,0,0,0,0,0,0,0,0],"id":45,"left_children":[1,3,5,7,9,11,13,-1,-1,15,-1,17,19,-1,21,-1,-1,-1,-1,-1,-1,-1,-1],"loss_changes":[3.239777E-2,2.950051E-2,6.086648E-2,1.0451997E-3,2.4895485E-2,3.353031E-2,5.0090015E-2,0E0,0E0,1.7557785E-2,0E0,3.7357446E-2,3.4247383E-2,0E0,5.7164907E-2,0E0,0E0,0E0,0E0,0E0,0E0,0E0,0E0],"parents":[2147483647,0,0,1,1,2,2,3,3,4,4,5,5,6,6,9,9,11,11,12,12,14,14],"right_children":[2,4,6,8,10,12,14,-1,-1,16,-1,18,20,-1,22,-1,-1,-1,-1,-1,-1,-1,-1],"split_conditions":[2.0875E-1,1.1627907E-2,3.478261E-1,4.1317365E-1,7.2727275E-1,6.71538E-2,1.24516256E-1,-0E0,9.775537E-4,6.666667E-2,-0E0,4.35052E-1,2.006689E-1,-0E0,7.005988E-1,-0E0,-4.980229E-3,-0E0,6.1248145E-3,-0E0,-4.4293166E-3,7.644414E-3,-0E0],"split_indices":[23,28,3,27,0,6,6,0,0,33,0,18,17,0,27,0,0,0,0,0,0,0,0],"split_type":[0,0,0,0,0,0,0,0,0,0,0,0,0,0,0,0,0,0,0,0,0,0,0],"sum_hessian":[1.14E2,3.6E1,7.8E1,8E0,2.8E1,5.1E1,2.7E1,3E0,5E0,2.3E1,5E0,3E1,2.1E1,5E0,2.2E1,4E0,1.9E1,2.4E1,6E0,4E0,1.7E1,1.9E1,3E0],"tree_param":{"num_deleted":"0","num_feature":"49","num_nodes":"23","size_leaf_vector":"1"}},{"base_weights":[-1.1434364E-3,-1.168547E-2,1.6467797E-2,-2.5616283E-2,6.4658914E-3,5.6613587E-2,-0E0,-0E0,-3.517875E-2,-1.3350368E-3,5.473396E-2,-0E0,6.7421114E-3,-2.1540685E-2,-0E0,-0E0,5.7926367E-4,-3.4807085E-3,-0E0,-0E0,-1.3272492E-3,8.297032E-3,-0E0,-2.1206676E-3,-0E0,1.8828491E-3,-0E0],"categories":[],"categories_nodes":[],"categories_segments":[],"categories_sizes":[],"default_left":[1,1,0,0,0,1,0,0,1,0,1,0,0,1,0,0,0,0,0,0,0,0,0,0,0,0,0],"id":46,"left_children":[1,3,5,7,9,11,13,15,17,19,21,-1,-1,23,25,-1,-1,-1,-1,-1,-1,-1,-1,-1,-1,-1,-1],"loss_changes":[2.1757955E-2,3.493992E-2,3.3259436E-2,2.4531618E-2,3.7765145E-2,1.515381E-2,4.640011E-3,3.1457475E-4,1.9087411E-2,3.2709003E-3,4.710543E-2,0E0,0E0,2.7883565E-4,4.9853264E-3,0E0,0E0,0E0,0E0,0E0,0E0,0E0,0E0,0E0,0E0,0E0,0E0],"parents":[2147483647,0,0,1,1,2,2,3,3,4,4,5,5,6,6,7,7,8,8,9,9,10,10,13,13,14,14],"right_children":[2,4,6,8,10,12,14,16,18,20,22,-1,-1,24,26,-1,-1,-1,-1,-1,-1,-1,-1,-1,-1,-1,-1],"split_conditions":[6.1009175E-1,5.16129E-1,6.6972476E-1,3.6144578E-1,1.8181819E-1,3.9130434E-1,4.4618258E-1,2.05E-1,4.9655646E-1,1.4285715E-1,3.598021E-1,-0E0,6.7421114E-3,4.1318682E-1,1E0,-0E0,5.7926367E-4,-3.4807085E-3,-0E0,-0E0,-1.3272492E-3,8.297032E-3,-0E0,-2.1206676E-3,-0E0,1.8828491E-3,-0E0],"split_indices":[24,4,24,1,37,3,2,23,34,29,6,0,0,31,14,0,0,0,0,0,0,0,0,0,0,0,0],"split_type":[0,0,0,0,0,0,0,0,0,0,0,0,0,0,0,0,0,0,0,0,0,0,0,0,0,0,0],"sum_hessian":[1.26E2,9.7E1,2.9E1,7E1,2.7E1,1.1E1,1.8E1,1.4E1,5.6E1,1.6E1,1.1E1,5E0,6E0,8E0,1E1,1E1,4E0,4.6E1,1E1,6E0,1E1,6E0,5E0,5E0,3E0,7E0,3E0],"tree_param":{"num_deleted":"0","num_feature":"49","num_nodes":"27","size_leaf_vector":"1"}},{"base_weights":[-0E0,-1.4437026E-2,1.3073207E-2,-0E0,-4.8017476E-2,-0E0,4.116301E-2,-1.7616987E-2,2.176969E-2,-0E0,-4.3802047E-3,-1.53658325E-2,3.4955945E-2,-0E0,7.136863E-2,-0E0,-1.7297014E-3,-0E0,4.096869E-3,-0E0,-3.3124564E-3,-0E0,6.6302E-3,-0E0,-3.8106387E-4,7.116685E-3,-0E0],"categories":[],"categories_nodes":[],"categories_segments":[],"categories_sizes":[],"default_left":[0,1,0,0,0,1,0,0,1,0,0,1,0,0,0,0,0,0,0,0,0,0,0,0,0,0,0],"id":47,"left_children":[1,3,5,7,9,11,13,15,17,-1,-1,19,21,23,25,-1,-1,-1,-1,-1,-1,-1,-1,-1,-1,-1,-1],"loss_changes":[2.40774E-2,2.5205921E-2,3.782804E-2,1.3332719E-2,1.388941E-3,2.8717563E-2,6.462388E-2,1.2686192E-3,1.8168896E-2,0E0,0E0,2.732873E-2,5.7226714E-2,1.5882311E-4,4.1122466E-2,0E0,0E0,0E0,0E0,0E0,0E0,0E0,0E0,0E0,0E0,0E0,0E0],"parents":[2147483647,0,0,1,1,2,2,3,3,4,4,5,5,6,6,7,7,8,8,11,11,12,12,13,13,14,14],"right_children":[2,4,6,8,10,12,14,16,18,-1,-1,20,22,24,26,-1,-1,-1,-1,-1,-1,-1,-1,-1,-1,-1,-1],"split_conditions":[3.3333334E-1,4.5364153E-1,5.412844E-1,2.9338843E-1,1.0084034E-2,5E-1,2.8797644E-1,1.2068965E-1,1.7582418E-1,-0E0,-4.3802047E-3,2.6152512E-1,4.2168674E-1,3.542093E-1,7.8899086E-1,-0E0,-1.7297014E-3,-0E0,4.096869E-3,-0E0,-3.3124564E-3,-0E0,6.6302E-3,-0E0,-3.8106387E-4,7.116685E-3,-0E0],"split_indices":[41,18,24,34,38,5,2,39,31,0,0,2,1,18,24,0,0,0,0,0,0,0,0,0,0,0,0],"split_type":[0,0,0,0,0,0,0,0,0,0,0,0,0,0,0,0,0,0,0,0,0,0,0,0,0,0,0],"sum_hessian":[1.27E2,4.3E1,8.4E1,3E1,1.3E1,5.5E1,2.9E1,1.5E1,1.5E1,3E0,1E1,4.2E1,1.3E1,8E0,2.1E1,3E0,1.2E1,7E0,8E0,2.2E1,2E1,4E0,9E0,3E0,5E0,1.8E1,3E0],"tree_param":{"num_deleted":"0","num_feature":"49","num_nodes":"27","size_leaf_vector":"1"}},{"base_weights":[4.7359822E-4,-1.8986793E-2,2.0372393E-2,-0E0,-4.1383743E-2,-1.1908293E-2,4.0460918E-2,-0E0,3.0032562E-3,-4.9165152E-2,-0E0,-0E0,-1.869214E-3,-0E0,8.198793E-2,-0E0,-1.5781058E-3,-4.6548294E-3,-0E0,1.4709301E-3,-2.2228514E-3,9.163663E-3,-0E0],"categories":[],"categories_nodes":[],"categories_segments":[],"categories_sizes":[],"default_left":[0,0,0,0,0,0,1,0,0,1,0,0,0,0,1,0,0,0,0,0,0,0,0],"id":48,"left_children":[1,3,5,7,9,11,13,15,-1,17,-1,-1,-1,19,21,-1,-1,-1,-1,-1,-1,-1,-1],"loss_changes":[4.793501E-2,3.371401E-2,6.257836E-2,1.1274435E-2,1.3886306E-2,4.806891E-3,1.1834291E-1,4.280406E-3,0E0,9.217091E-3,0E0,0E0,0E0,1.7277434E-2,1.1963582E-1,0E0,0E0,0E0,0E0,0E0,0E0,0E0,0E0],"parents":[2147483647,0,0,1,1,2,2,3,3,4,4,5,5,6,6,7,7,9,9,13,13,14,14],"right_children":[2,4,6,8,10,12,14,16,-1,18,-1,-1,-1,20,22,-1,-1,-1,-1,-1,-1,-1,-1],"split_conditions":[5.555556E-1,1.4285715E-1,1.3333334E-1,4.2406313E-2,5.4820937E-1,6.2673265E-1,3.1629094E-1,4.1586426E-1,3.0032562E-3,1.2790698E-1,-0E0,-0E0,-1.869214E-3,1.4285714E-2,2.857143E-1,-0E0,-1.5781058E-3,-4.6548294E-3,-0E0,1.4709301E-3,-2.2228514E-3,9.163663E-3,-0E0],"split_indices":[41,29,33,22,34,6,2,6,0,47,0,0,0,20,29,0,0,0,0,0,0,0,0],"split_type":[0,0,0,0,0,0,0,0,0,0,0,0,0,0,0,0,0,0,0,0,0,0,0],"sum_hessian":[1.18E2,4.7E1,7.1E1,1.9E1,2.8E1,1.8E1,5.3E1,1.3E1,6E0,2.5E1,3E0,6E0,1.2E1,2.4E1,2.9E1,4E0,9E0,2E1,5E0,8E0,1.6E1,2.3E1,6E0],"tree_param":{"num_deleted":"0","num_feature":"49","num_nodes":"23","size_leaf_vector":"1"}},{"base_weights":[5.315719E-3,-0E0,2.691278E-2,1.9895636E-2,-1.927926E-2,-0E0,6.903213E-2,-0E0,5.5745453E-2,-0E0,-3.7797317E-2,-0E0,-2.0789836E-2,-0E0,1.0386055E-2,-0E0,-7.352464E-5,-0E0,6.6641695E-3,-0E0,2.430705E-3,-4.6084523E-3,-0E0,-0E0,2.7950162E-3,-0E0,-3.1153527E-3,-0E0,-1.0839825E-3],"categories":[],"categories_nodes":[],"categories_segments":[],"categories_sizes":[],"default_left":[1,0,0,0,0,0,0,1,0,0,1,0,0,0,0,0,0,0,0,0,0,0,0,0,0,0,0,0,0],"id":49,"left_children":[1,3,5,7,9,11,13,15,17,19,21,23,25,27,-1,-1,-1,-1,-1,-1,-1,-1,-1,-1,-1,-1,-1,-1,-1],"loss_changes":[2.755618E-2,3.345725E-2,7.846022E-2,3.7449963E-2,3.595917E-2,5.618825E-3,1.2636092E-1,1.182535E-5,2.661078E-2,8.308585E-3,5.5680495E-2,6.1032157E-3,9.545898E-3,1.2851761E-3,0E0,0E0,0E0,0E0,0E0,0E0,0E0,0E0,0E0,0E0,0E0,0E0,0E0,0E0,0E0],"parents":[2147483647,0,0,1,1,2,2,3,3,4,4,5,5,6,6,7,7,8,8,9,9,10,10,11,11,12,12,13,13],"right_children":[2,4,6,8,10,12,14,16,18,20,22,24,26,28,-1,-1,-1,-1,-1,-1,-1,-1,-1,-1,-1,-1,-1,-1,-1],"split_conditions":[4.6666667E-1,2E-1,3E-1,1.8181819E-1,3.7142858E-1,2.7667984E-1,5.6956106E-1,1E-1,1.7875E-1,6.055046E-1,3E-1,3.2300276E-1,2.8985508E-2,5.3333336E-1,1.0386055E-2,-0E0,-7.352464E-5,-0E0,6.6641695E-3,-0E0,2.430705E-3,-4.6084523E-3,-0E0,-0E0,2.7950162E-3,-0E0,-3.1153527E-3,-0E0,-1.0839825E-3],"split_indices":[5,33,25,37,31,17,7,25,23,24,43,34,36,5,0,0,0,0,0,0,0,0,0,0,0,0,0,0,0],"split_type":[0,0,0,0,0,0,0,0,0,0,0,0,0,0,0,0,0,0,0,0,0,0,0,0,0,0,0,0,0],"sum_hessian":[1.25E2,8.4E1,4.1E1,2.9E1,5.5E1,2E1,2.1E1,1.5E1,1.4E1,1.7E1,3.8E1,9E0,1.1E1,9E0,1.2E1,3E0,1.2E1,5E0,9E0,1E1,7E0,3.2E1,6E0,6E0,3E0,3E0,8E0,4E0,5E0],"tree_param":{"num_deleted":"0","num_feature":"49","num_nodes":"29","size_leaf_vector":"1"}},{"base_weights":[2.8764288E-4,-2.3089699E-3,2.7490593E-2,-1.6320871E-2,2.0134656E-2,7.0291564E-2,-0E0,-2.9899236E-2,-0E0,4.193845E-2,-0E0,-0E0,8.547692E-3,2.1885406E-2,-3.6561238E-3,-2.9123246E-3,-0E0,1.5213044E-3,-6.4534426E-4,-0E0,4.6080197E-3,2.6651004E-3,-0E0],"categories":[],"categories_nodes":[],"categories_segments":[],"categories_sizes":[],"default_left":[1,1,0,1,0,0,1,1,0,0,0,0,0,1,0,0,0,0,0,0,0,0,0],"id":50,"left_children":[1,3,5,7,9,11,13,15,17,19,-1,-1,-1,21,-1,-1,-1,-1,-1,-1,-1,-1,-1],"loss_changes":[2.1688474E-2,3.0512601E-2,4.8012145E-2,1.971784E-2,2.287732E-2,4.4988334E-2,2.3108426E-2,1.1456568E-2,6.4942907E-3,1.9666784E-2,0E0,0E0,0E0,2.3480984E-3,0E0,0E0,0E0,0E0,0E0,0E0,0E0,0E0,0E0],"parents":[2147483647,0,0,1,1,2,2,3,3,4,4,5,5,6,6,7,7,8,8,9,9,13,13],"right_children":[2,4,6,8,10,12,14,16,18,20,-1,-1,-1,22,-1,-1,-1,-1,-1,-1,-1,-1,-1],"split_conditions":[5.483871E-1,5.9701204E-1,7.271339E-1,1.3806706E-2,5.452921E-1,4.3373495E-1,3.9130434E-1,7.5416666E-1,3.1431898E-1,2.8905958E-1,-0E0,-0E0,8.547692E-3,4.761905E-2,-3.6561238E-3,-2.9123246E-3,-0E0,1.5213044E-3,-6.4534426E-4,-0E0,4.6080197E-3,2.6651004E-3,-0E0],"split_indices":[4,26,6,22,18,1,3,35,26,18,0,0,0,21,0,0,0,0,0,0,0,0,0],"split_type":[0,0,0,0,0,0,0,0,0,0,0,0,0,0,0,0,0,0,0,0,0,0,0],"sum_hessian":[1.25E2,9.9E1,2.6E1,7.5E1,2.4E1,1.2E1,1.4E1,4.3E1,3.2E1,1.7E1,7E0,4E0,8E0,7E0,7E0,3.7E1,6E0,1.2E1,2E1,3E0,1.4E1,4E0,3E0],"tree_param":{"num_deleted":"0","num_feature":"49","num_nodes":"23","size_leaf_vector":"1"}},{"base_weights":[-0E0,-1.344152E-2,1.2442219E-2,-0E0,-3.024319E-2,-1.3943447E-2,3.1013124E-2,-0E0,2.1968275E-2,-0E0,-4.881543E-2,-0E0,-2.4696432E-2,5.1308587E-2,-0E0,2.7568701E-3,-0E0,-0E0,9.1997755E-4,-4.22798E-3,-0E0,-0E0,-3.96555E-3,-0E0,5.991268E-3,-7.8190066E-4,-0E0],"categories":[],"categories_nodes":[],"categories_segments":[],"categories_sizes":[],"default_left":[0,0,1,0,0,0,1,0,0,0,1,0,0,0,0,0,0,0,0,0,0,0,0,0,0,0,0],"id":51,"left_children":[1,3,5,7,9,11,13,-1,15,17,19,-1,21,23,25,-1,-1,-1,-1,-1,-1,-1,-1,-1,-1,-1,-1],"loss_changes":[2.27094E-2,2.5937507E-2,4.4680104E-2,5.791262E-3,3.1604767E-2,6.480139E-3,5.8630034E-2,0E0,4.896705E-3,9.257049E-4,7.2196126E-4,0E0,1.4202697E-2,8.573442E-2,9.5526344E-4,0E0,0E0,0E0,0E0,0E0,0E0,0E0,0E0,0E0,0E0,0E0,0E0],"parents":[2147483647,0,0,1,1,2,2,3,3,4,4,5,5,6,6,8,8,9,9,10,10,12,12,13,13,14,14],"right_children":[2,4,6,8,10,12,14,-1,16,18,20,-1,22,24,26,-1,-1,-1,-1,-1,-1,-1,-1,-1,-1,-1,-1],"split_conditions":[2.7272728E-1,3.726708E-1,3.4131736E-1,5.208333E-1,3.6396723E-2,1.7972681E-1,5.0695854E-1,-0E0,6E-1,1E0,2.857143E-1,-0E0,3.409091E-1,1.6330859E-1,6.86747E-1,2.7568701E-3,-0E0,-0E0,9.1997755E-4,-4.22798E-3,-0E0,-0E0,-3.96555E-3,-0E0,5.991268E-3,-7.8190066E-4,-0E0],"split_indices":[37,19,27,35,30,16,6,0,35,48,29,0,34,42,1,0,0,0,0,0,0,0,0,0,0,0,0],"split_type":[0,0,0,0,0,0,0,0,0,0,0,0,0,0,0,0,0,0,0,0,0,0,0,0,0,0,0],"sum_hessian":[1.32E2,6.2E1,7E1,2.3E1,3.9E1,1.8E1,5.2E1,1.3E1,1E1,1.2E1,2.7E1,3E0,1.5E1,4E1,1.2E1,7E0,3E0,7E0,5E0,2.3E1,4E0,7E0,8E0,7E0,3.3E1,8E0,4E0],"tree_param":{"num_deleted":"0","num_feature":"49","num_nodes":"27","size_leaf_vector":"1"}},{"base_weights":[-0E0,1.8234791E-2,-1.9524522E-2,-0E0,5.175419E-2,-5.3887382E-2,-0E0,1.1258513E-2,-1.3628396E-2,7.730635E-2,-0E0,-0E0,-5.3693717E-3,-1.3734719E-2,2.372545E-2,4.1617705E-3,-0E0,-0E0,-1.94312E-3,8.134308E-3,-0E0,-0E0,-2.0825379E-3,3.9498773E-3,-0E0],"categories":[],"categories_nodes":[],"categories_segments":[],"categories_sizes":[],"default_left":[0,0,1,0,1,0,0,0,0,1,0,0,0,0,0,0,0,0,0,0,0,0,0,0,0],"id":52,"left_children":[1,3,5,7,9,11,13,15,17,19,-1,-1,-1,21,23,-1,-1,-1,-1,-1,-1,-1,-1,-1,-1],"loss_changes":[4.4809535E-2,4.771384E-2,4.9488425E-2,7.938936E-3,5.9158593E-2,1.1392415E-2,1.3336038E-2,2.9180016E-2,8.335693E-3,6.4955205E-2,0E0,0E0,0E0,4.135512E-3,2.5871046E-2,0E0,0E0,0E0,0E0,0E0,0E0,0E0,0E0,0E0,0E0],"parents":[2147483647,0,0,1,1,2,2,3,3,4,4,5,5,6,6,7,7,8,8,9,9,13,13,14,14],"right_children":[2,4,6,8,10,12,14,16,18,20,-1,-1,-1,22,24,-1,-1,-1,-1,-1,-1,-1,-1,-1,-1],"split_conditions":[4E-1,3E-1,4.6706587E-1,2.7522936E-1,3.3333334E-1,2.86336E-1,8.730929E-1,3.1E-1,1.5568863E-1,9.090909E-2,-0E0,-0E0,-5.3693717E-3,2.8644758E-1,6E-1,4.1617705E-3,-0E0,-0E0,-1.94312E-3,8.134308E-3,-0E0,-0E0,-2.0825379E-3,3.9498773E-3,-0E0],"split_indices":[25,25,27,24,40,18,7,23,27,37,0,0,0,7,8,0,0,0,0,0,0,0,0,0,0],"split_type":[0,0,0,0,0,0,0,0,0,0,0,0,0,0,0,0,0,0,0,0,0,0,0,0,0],"sum_hessian":[1.23E2,7.2E1,5.1E1,4.7E1,2.5E1,2.2E1,2.9E1,2.4E1,2.3E1,2E1,5E0,6E0,1.6E1,1.2E1,1.7E1,1E1,1.4E1,3E0,2E1,1.7E1,3E0,4E0,8E0,1.3E1,4E0],"tree_param":{"num_deleted":"0","num_feature":"49","num_nodes":"25","size_leaf_vector":"1"}},{"base_weights":[-2.6312983E-3,-2.3662448E-2,1.243433E-3,-0E0,-3.5532832E-2,-0E0,4.5557E-3,-0E0,-4.4517547E-2,1.7126799E-2,-2.7008215E-2,-0E0,-4.129151E-3,-0E0,3.8351023E-3,-3.2841575E-3,-0E0],"categories":[],"categories_nodes":[],"categories_segments":[],"categories_sizes":[],"default_left":[0,1,1,0,0,0,0,0,1,0,1,0,0,0,0,0,0],"id":53,"left_children":[1,3,5,-1,7,9,-1,-1,11,13,15,-1,-1,-1,-1,-1,-1],"loss_changes":[2.1128649E-2,1.8566083E-2,2.581313E-2,0E0,1.7069917E-2,4.047472E-2,0E0,0E0,1.1792619E-2,3.1637993E-2,2.2109622E-2,0E0,0E0,0E0,0E0,0E0,0E0],"parents":[2147483647,0,0,1,1,2,2,4,4,5,5,8,8,9,9,10,10],"right_children":[2,4,6,-1,8,10,-1,-1,12,14,16,-1,-1,-1,-1,-1,-1],"split_conditions":[7.664573E-1,2.2002329E-1,7.826087E-1,-0E0,3.493976E-1,4.9068323E-1,4.5557E-3,-0E0,2.2105658E-1,1.8181819E-1,6.0128057E-1,-0E0,-4.129151E-3,-0E0,3.8351023E-3,-3.2841575E-3,-0E0],"split_indices":[7,26,19,0,1,19,0,0,18,37,26,0,0,0,0,0,0],"split_type":[0,0,0,0,0,0,0,0,0,0,0,0,0,0,0,0,0],"sum_hessian":[1.19E2,3.7E1,8.2E1,7E0,3E1,7.6E1,6E0,3E0,2.7E1,3.9E1,3.7E1,3E0,2.4E1,2.2E1,1.7E1,2.8E1,9E0],"tree_param":{"num_deleted":"0","num_feature":"49","num_nodes":"17","size_leaf_vector":"1"}},{"base_weights":[-1.5010481E-3,1.5166366E-2,-1.7719582E-2,-0E0,3.7048634E-2,-0E0,-3.1220004E-2,-1.1869606E-2,-0E0,-0E0,8.050887E-2,-6.387054E-4,1.2662111E-2,-4.846751E-2,-0E0,-0E0,-2.2003283E-3,-0E0,1.1269881E-4,8.634203E-3,-0E0,2.9154404E-3,-0E0,-0E0,-4.7864867E-3,1.4152585E-3,-9.484661E-4],"categories":[],"categories_nodes":[],"categories_segments":[],"categories_sizes":[],"default_left":[0,0,0,1,1,0,0,0,0,0,1,0,1,0,0,0,0,0,0,0,0,0,0,0,0,0,0],"id":54,"left_children":[1,3,5,7,9,11,13,15,-1,17,19,-1,21,23,25,-1,-1,-1,-1,-1,-1,-1,-1,-1,-1,-1,-1],"loss_changes":[3.6415182E-2,3.127973E-2,2.6225831E-2,2.3950883E-3,4.1711174E-2,4.2612404E-3,2.8210875E-2,7.439096E-3,0E0,2.1829881E-5,3.2221712E-2,0E0,1.8890008E-2,1.6784102E-2,4.7845067E-3,0E0,0E0,0E0,0E0,0E0,0E0,0E0,0E0,0E0,0E0,0E0,0E0],"parents":[2147483647,0,0,1,1,2,2,3,3,4,4,5,5,6,6,7,7,9,9,10,10,12,12,13,13,14,14],"right_children":[2,4,6,8,10,12,14,16,-1,18,20,-1,22,24,26,-1,-1,-1,-1,-1,-1,-1,-1,-1,-1,-1,-1],"split_conditions":[3.5448197E-1,1.3E-1,1.7006803E-2,6.122449E-2,2.1929824E-1,2.68E-1,4.6617863E-1,1.3580246E-1,-0E0,2.5693864E-1,5.4320985E-1,-6.387054E-4,3.7139952E-1,1.21839084E-1,5.5609995E-1,-0E0,-2.2003283E-3,-0E0,1.1269881E-4,8.634203E-3,-0E0,2.9154404E-3,-0E0,-0E0,-4.7864867E-3,1.4152585E-3,-9.484661E-4],"split_indices":[26,25,20,20,32,43,18,40,0,18,40,0,7,39,18,0,0,0,0,0,0,0,0,0,0,0,0],"split_type":[0,0,0,0,0,0,0,0,0,0,0,0,0,0,0,0,0,0,0,0,0,0,0,0,0,0,0],"sum_hessian":[1.26E2,4.7E1,7.9E1,1.8E1,2.9E1,2.8E1,5.1E1,1.5E1,3E0,1.8E1,1.1E1,7E0,2.1E1,3.2E1,1.9E1,4E0,1.1E1,9E0,9E0,8E0,3E0,1.5E1,6E0,7E0,2.5E1,7E0,1.2E1],"tree_param":{"num_deleted":"0","num_feature":"49","num_nodes":"27","size_leaf_vector":"1"}},{"base_weights":[-0E0,-1.8461263E-2,3.347502E-3,-3.3545982E-2,-0E0,2.4879701E-2,-1.1435991E-2,-4.376461E-2,-0E0,3.9182365E-2,-0E0,-2.7522251E-2,-0E0,-3.9101252E-3,-0E0,4.5425068E-3,-0E0,-0E0,-3.397545E-3],"categories":[],"categories_nodes":[],"categories_segments":[],"categories_sizes":[],"default_left":[0,1,0,0,0,1,1,0,0,0,0,0,0,0,0,0,0,0,0],"id":55,"left_children":[1,3,5,7,-1,9,11,13,-1,15,-1,17,-1,-1,-1,-1,-1,-1,-1],"loss_changes":[1.5266857E-2,2.1696283E-2,3.4348197E-2,1.5703563E-2,0E0,3.261459E-2,1.6239567E-2,3.2309256E-3,0E0,4.6674527E-2,0E0,1.6667219E-2,0E0,0E0,0E0,0E0,0E0,0E0,0E0],"parents":[2147483647,0,0,1,1,2,2,3,3,5,5,6,6,7,7,9,9,11,11],"right_children":[2,4,6,8,-1,10,12,14,-1,16,-1,18,-1,-1,-1,-1,-1,-1,-1],"split_conditions":[2.125E-1,6.8917346E-1,6.363636E-1,5.714286E-1,-0E0,4.5934066E-1,6.875E-1,5.2953666E-1,-0E0,7.1012807E-1,-0E0,2.465631E-1,-0E0,-3.9101252E-3,-0E0,4.5425068E-3,-0E0,-0E0,-3.397545E-3],"split_indices":[23,26,0,19,0,31,35,18,0,26,0,18,0,0,0,0,0,0,0],"split_type":[0,0,0,0,0,0,0,0,0,0,0,0,0,0,0,0,0,0,0],"sum_hessian":[1.23E2,4E1,8.3E1,3E1,1E1,4.7E1,3.6E1,2.5E1,5E0,3.9E1,8E0,2.6E1,1E1,2.1E1,4E0,3.2E1,7E0,7E0,1.9E1],"tree_param":{"num_deleted":"0","num_feature":"49","num_nodes":"19","size_leaf_vector":"1"}},{"base_weights":[-4.880898E-4,1.5768457E-2,-1.29177645E-2,-0E0,3.5885133E-2,-0E0,-2.7354456E-2,-0E0,6.483772E-2,3.0307649E-2,-0E0,-3.8771845E-2,-0E0,-0E0,6.799935E-3,-0E0,3.1391343E-3,-1.2586423E-3,-0E0,-0E0,-3.4908997E-3,3.8311744E-4,-0E0],"categories":[],"categories_nodes":[],"categories_segments":[],"categories_sizes":[],"default_left":[0,1,0,0,0,1,1,0,1,0,1,0,0,0,0,0,0,0,0,0,0,0,0],"id":56,"left_children":[1,3,5,-1,7,9,11,-1,13,15,17,19,21,-1,-1,-1,-1,-1,-1,-1,-1,-1,-1],"loss_changes":[2.1613162E-2,2.2949211E-2,2.672315E-2,0E0,4.896883E-2,9.185536E-3,2.7240139E-2,0E0,2.8498285E-2,1.5924573E-3,4.4555087E-3,8.518368E-3,1.6053951E-4,0E0,0E0,0E0,0E0,0E0,0E0,0E0,0E0,0E0,0E0],"parents":[2147483647,0,0,1,1,2,2,4,4,5,5,6,6,8,8,9,9,10,10,11,11,12,12],"right_children":[2,4,6,-1,8,10,12,-1,14,16,18,20,22,-1,-1,-1,-1,-1,-1,-1,-1,-1,-1],"split_conditions":[4E-1,2.3411371E-1,4.347826E-1,-0E0,3.5604396E-1,2.1695259E-1,4.5274726E-1,-0E0,4.7083333E-1,3.292011E-1,1.1111111E-1,3.0769232E-1,6E-1,-0E0,6.799935E-3,-0E0,3.1391343E-3,-1.2586423E-3,-0E0,-0E0,-3.4908997E-3,3.8311744E-4,-0E0],"split_indices":[8,17,3,0,31,7,31,0,35,34,41,31,8,0,0,0,0,0,0,0,0,0,0],"split_type":[0,0,0,0,0,0,0,0,0,0,0,0,0,0,0,0,0,0,0,0,0,0,0],"sum_hessian":[1.1E2,3E1,8E1,8E0,2.2E1,2.8E1,5.2E1,5E0,1.7E1,8E0,2E1,4.3E1,9E0,4E0,1.3E1,3E0,5E0,1.6E1,4E0,5E0,3.8E1,5E0,4E0],"tree_param":{"num_deleted":"0","num_feature":"49","num_nodes":"23","size_leaf_vector":"1"}},{"base_weights":[-0E0,1.040951E-2,-8.57948E-3,2.4822425E-2,-4.6820417E-3,-4.6890453E-2,-0E0,4.84257E-2,-0E0,-4.3150174E-4,-0E0,-0E0,-5.0391993E-3,3.6188025E-2,-9.200484E-3,-0E0,5.837054E-3,-0E0,-1.5059913E-3,-0E0,6.4475844E-3,-1.925021E-3,-0E0],"categories":[],"categories_nodes":[],"categories_segments":[],"categories_sizes":[],"default_left":[0,1,0,0,0,0,0,0,0,0,0,0,0,0,1,0,0,0,0,0,0,0,0],"id":57,"left_children":[1,3,5,7,9,11,13,15,17,-1,-1,-1,-1,19,21,-1,-1,-1,-1,-1,-1,-1,-1],"loss_changes":[1.1792999E-2,2.4223479E-2,3.0321337E-2,4.8924003E-2,2.746188E-5,1.24334395E-2,2.2944907E-2,4.803537E-2,3.8981421E-3,0E0,0E0,0E0,0E0,4.531163E-2,1.4069188E-2,0E0,0E0,0E0,0E0,0E0,0E0,0E0,0E0],"parents":[2147483647,0,0,1,1,2,2,3,3,4,4,5,5,6,6,7,7,8,8,13,13,14,14],"right_children":[2,4,6,8,10,12,14,16,18,-1,-1,-1,-1,20,22,-1,-1,-1,-1,-1,-1,-1,-1],"split_conditions":[6.5217394E-1,5.607477E-1,4.6666667E-1,7.2727275E-1,6.3877255E-1,3.3539945E-1,4E-1,1.2605042E-2,2.2222222E-1,-4.3150174E-4,-0E0,-0E0,-5.0391993E-3,4.5454547E-1,5.329341E-1,-0E0,5.837054E-3,-0E0,-1.5059913E-3,-0E0,6.4475844E-3,-1.925021E-3,-0E0],"split_indices":[3,16,5,0,30,34,8,38,41,0,0,0,0,0,27,0,0,0,0,0,0,0,0],"split_type":[0,0,0,0,0,0,0,0,0,0,0,0,0,0,0,0,0,0,0,0,0,0,0],"sum_hessian":[1.26E2,6.2E1,6.4E1,4.8E1,1.4E1,1.4E1,5E1,3.2E1,1.6E1,1.1E1,3E0,4E0,1E1,1.3E1,3.7E1,1E1,2.2E1,7E0,9E0,5E0,8E0,2.8E1,9E0],"tree_param":{"num_deleted":"0","num_feature":"49","num_nodes":"23","size_leaf_vector":"1"}},{"base_weights":[-0E0,-1.6926901E-2,1.03520155E-2,-2.6272168E-2,-0E0,-0E0,3.7650783E-2,-4.0161397E-2,-0E0,-2.160446E-3,4.335692E-3,-0E0,5.3960063E-2,-0E0,-3.6977537E-3,-0E0,3.298861E-3,-0E0,6.6542863E-3],"categories":[],"categories_nodes":[],"categories_segments":[],"categories_sizes":[],"default_left":[0,1,1,1,0,0,0,0,0,0,1,0,0,0,0,0,0,0,0],"id":58,"left_children":[1,3,5,7,-1,9,11,13,-1,-1,15,-1,17,-1,-1,-1,-1,-1,-1],"loss_changes":[1.9710198E-2,1.0105565E-2,3.0583318E-2,1.8003704E-2,0E0,1.1093732E-2,3.0188244E-2,6.155286E-3,0E0,0E0,2.1221532E-2,0E0,2.006226E-2,0E0,0E0,0E0,0E0,0E0,0E0],"parents":[2147483647,0,0,1,1,2,2,3,3,5,5,6,6,7,7,10,10,12,12],"right_children":[2,4,6,8,-1,10,12,14,-1,-1,16,-1,18,-1,-1,-1,-1,-1,-1],"split_conditions":[3.3333334E-1,5.6886226E-1,2.125E-1,9.090909E-2,-0E0,1.3E-1,2.6152512E-1,1.3E-1,-0E0,-2.160446E-3,4.6666667E-1,-0E0,2.9736617E-1,-0E0,-3.6977537E-3,-0E0,3.298861E-3,-0E0,6.6542863E-3],"split_indices":[41,27,23,37,0,25,2,25,0,0,5,0,16,0,0,0,0,0,0],"split_type":[0,0,0,0,0,0,0,0,0,0,0,0,0,0,0,0,0,0,0],"sum_hessian":[1.18E2,3.5E1,8.3E1,2.8E1,7E0,5.7E1,2.6E1,2.2E1,6E0,1.2E1,4.5E1,4E0,2.2E1,3E0,1.9E1,3.4E1,1.1E1,1.1E1,1.1E1],"tree_param":{"num_deleted":"0","num_feature":"49","num_nodes":"19","size_leaf_vector":"1"}},{"base_weights":[-0E0,-1.7519418E-2,2.869276E-3,-0E0,-2.5632005E-2,1.2815712E-2,-1.6033446E-2,-0E0,-3.251667E-2,-0E0,2.3349764E-2,-0E0,-2.4873852E-3,-2.8003508E-3,-0E0,-1.4208476E-3,-0E0,-0E0,2.6518009E-3],"categories":[],"categories_nodes":[],"categories_segments":[],"categories_sizes":[],"default_left":[0,0,1,0,0,1,0,0,1,1,0,0,0,0,0,0,0,0,0],"id":59,"left_children":[1,3,5,-1,7,9,11,-1,13,15,17,-1,-1,-1,-1,-1,-1,-1,-1],"loss_changes":[1.1848058E-2,6.0325116E-3,1.703952E-2,0E0,6.1793514E-3,2.1970864E-2,8.197304E-3,0E0,1.9488856E-5,3.7852654E-3,2.8289177E-2,0E0,0E0,0E0,0E0,0E0,0E0,0E0,0E0],"parents":[2147483647,0,0,1,1,2,2,4,4,5,5,6,6,8,8,9,9,10,10],"right_children":[2,4,6,-1,8,10,12,-1,14,16,18,-1,-1,-1,-1,-1,-1,-1,-1],"split_conditions":[2.2796144E-1,4.0833333E-1,1.6091955E-1,-0E0,1.6875E-1,2.5688073E-1,3.6024845E-1,-0E0,6.122449E-2,3.2506886E-1,2.28E-1,-0E0,-2.4873852E-3,-2.8003508E-3,-0E0,-1.4208476E-3,-0E0,-0E0,2.6518009E-3],"split_indices":[34,35,39,0,23,24,19,0,20,34,43,0,0,0,0,0,0,0,0],"split_type":[0,0,0,0,0,0,0,0,0,0,0,0,0,0,0,0,0,0,0],"sum_hessian":[1.29E2,3.4E1,9.5E1,1E1,2.4E1,8E1,1.5E1,4E0,2E1,1.7E1,6.3E1,4E0,1.1E1,1.7E1,3E0,1E1,7E0,7E0,5.6E1],"tree_param":{"num_deleted":"0","num_feature":"49","num_nodes":"19","size_leaf_vector":"1"}},{"base_weights":[-9.2807735E-5,4.8313416E-3,-1.7185543E-2,-5.929153E-3,2.6497928E-2,-0E0,-3.7123643E-2,-0E0,-2.0357482E-2,5.0877232E-2,-0E0,1.3001176E-2,-0E0,-4.6321824E-2,-0E0,-0E0,4.1798875E-4,-0E0,-2.5030174E-3,6.4582536E-3,-0E0,-0E0,-7.7598175E-4,-0E0,2.4640006E-3,-4.494914E-3,-0E0],"categories":[],"categories_nodes":[],"categories_segments":[],"categories_sizes":[],"default_left":[0,1,0,0,1,1,1,0,0,0,0,0,0,1,0,0,0,0,0,0,0,0,0,0,0,0,0],"id":60,"left_children":[1,3,5,7,9,11,13,15,17,19,21,23,-1,25,-1,-1,-1,-1,-1,-1,-1,-1,-1,-1,-1,-1,-1],"loss_changes":[1.7200723E-2,2.9016918E-2,3.2877944E-2,1.023292E-2,4.298791E-2,2.3664278E-3,2.0426992E-2,2.1839324E-4,6.9955476E-3,5.1345937E-2,1.1290269E-3,5.222696E-3,0E0,2.2887744E-2,0E0,0E0,0E0,0E0,0E0,0E0,0E0,0E0,0E0,0E0,0E0,0E0,0E0],"parents":[2147483647,0,0,1,1,2,2,3,3,4,4,5,5,6,6,7,7,8,8,9,9,10,10,11,11,13,13],"right_children":[2,4,6,8,10,12,14,16,18,20,22,24,-1,26,-1,-1,-1,-1,-1,-1,-1,-1,-1,-1,-1,-1,-1],"split_conditions":[4E-1,2.2865014E-1,4.6405822E-2,7.92011E-2,2.2222222E-1,4.864974E-1,7E-1,5.3030305E-2,2.173913E-1,4.2597342E-1,4E-1,2.6666668E-1,-0E0,1.13372095E-1,-0E0,-0E0,4.1798875E-4,-0E0,-2.5030174E-3,6.4582536E-3,-0E0,-0E0,-7.7598175E-4,-0E0,2.4640006E-3,-4.494914E-3,-0E0],"split_indices":[25,34,30,34,41,18,25,34,17,18,5,33,0,28,0,0,0,0,0,0,0,0,0,0,0,0,0],"split_type":[0,0,0,0,0,0,0,0,0,0,0,0,0,0,0,0,0,0,0,0,0,0,0,0,0,0,0],"sum_hessian":[1.27E2,7.7E1,5E1,3.7E1,4E1,1.7E1,3.3E1,1.1E1,2.6E1,2.6E1,1.4E1,1.2E1,5E0,3E1,3E0,5E0,6E0,9E0,1.7E1,1.7E1,9E0,4E0,1E1,6E0,6E0,2.7E1,3E0],"tree_param":{"num_deleted":"0","num_feature":"49","num_nodes":"27","size_leaf_vector":"1"}},{"base_weights":[-0E0,6.3661444E-3,-6.7653116E-3,-9.271839E-3,3.605555E-2,-2.9847277E-2,-0E0,-2.385497E-2,-0E0,-0E0,5.2042708E-2,-4.35104E-3,-0E0,-1.3020782E-2,3.4225006E-2,-0E0,-2.1797612E-3,-0E0,5.521253E-3,7.8496715E-4,-0E0,-2.069535E-3,-0E0,-0E0,5.035533E-3],"categories":[],"categories_nodes":[],"categories_segments":[],"categories_sizes":[],"default_left":[1,0,0,1,0,1,0,0,0,0,0,0,0,0,0,0,0,0,0,0,0,0,0,0,0],"id":61,"left_children":[1,3,5,7,9,11,13,15,-1,-1,17,-1,19,21,23,-1,-1,-1,-1,-1,-1,-1,-1,-1,-1],"loss_changes":[5.698428E-3,3.6346015E-2,2.3863567E-2,7.7827387E-3,2.8602567E-2,4.04186E-2,3.2366376E-2,7.195845E-4,0E0,0E0,2.5497451E-2,0E0,5.7766255E-4,1.2643499E-2,4.0412392E-2,0E0,0E0,0E0,0E0,0E0,0E0,0E0,0E0,0E0,0E0],"parents":[2147483647,0,0,1,1,2,2,3,3,4,4,5,5,6,6,7,7,10,10,12,12,13,13,14,14],"right_children":[2,4,6,8,10,12,14,16,-1,-1,18,-1,20,22,24,-1,-1,-1,-1,-1,-1,-1,-1,-1,-1],"split_conditions":[3.5448197E-1,1.3E-1,4.251497E-1,2.2625E-1,1.8504241E-2,4.276615E-2,3.478261E-1,3.18E-1,-0E0,-0E0,9.6491225E-2,-4.35104E-3,3.473054E-1,6.987952E-1,1E0,-0E0,-2.1797612E-3,-0E0,5.521253E-3,7.8496715E-4,-0E0,-2.069535E-3,-0E0,-0E0,5.035533E-3],"split_indices":[26,25,27,23,46,30,17,43,0,0,32,0,27,1,10,0,0,0,0,0,0,0,0,0,0],"split_type":[0,0,0,0,0,0,0,0,0,0,0,0,0,0,0,0,0,0,0,0,0,0,0,0,0],"sum_hessian":[1.26E2,4.6E1,8E1,2E1,2.6E1,2.9E1,5.1E1,1.5E1,5E0,4E0,2.2E1,2.1E1,8E0,3E1,2.1E1,3E0,1.2E1,5E0,1.7E1,4E0,4E0,2.5E1,5E0,6E0,1.5E1],"tree_param":{"num_deleted":"0","num_feature":"49","num_nodes":"25","size_leaf_vector":"1"}},{"base_weights":[-2.1809808E-3,-1.4572844E-2,2.8603955E-3,-2.5337914E-2,-0E0,2.7901614E-2,-1.6193892E-3,-3.2551415E-2,-0E0,-0E0,6.326285E-4,5.827308E-3,-0E0,-2.4177723E-2,-0E0,-3.0595367E-3,-0E0,2.5057996E-4,-2.0456668E-4,9.802023E-4,-9.189424E-4,-0E0,-4.505463E-3,1.850429E-3,-0E0],"categories":[],"categories_nodes":[],"categories_segments":[],"categories_sizes":[],"default_left":[0,0,0,1,0,0,1,1,1,0,0,0,1,0,0,0,0,0,0,0,0,0,0,0,0],"id":62,"left_children":[1,3,5,7,9,11,13,15,17,-1,-1,-1,19,21,23,-1,-1,-1,-1,-1,-1,-1,-1,-1,-1],"loss_changes":[1.349871E-2,2.1076996E-2,1.9850057E-2,9.834435E-3,5.6280766E-4,3.8123496E-2,1.33531485E-2,1.2539189E-2,1.27525E-4,0E0,0E0,0E0,2.6160465E-3,3.7303064E-2,5.350137E-3,0E0,0E0,0E0,0E0,0E0,0E0,0E0,0E0,0E0,0E0],"parents":[2147483647,0,0,1,1,2,2,3,3,4,4,5,5,6,6,7,7,8,8,12,12,13,13,14,14],"right_children":[2,4,6,8,10,12,14,16,18,-1,-1,-1,20,22,24,-1,-1,-1,-1,-1,-1,-1,-1,-1,-1],"split_conditions":[5.16129E-1,7.2289157E-1,5.4545456E-1,4.6666667E-1,4.3491956E-2,7.6666665E-1,6.9166666E-1,3.0625E-1,3.7139952E-1,-0E0,6.326285E-4,5.827308E-3,1.1627907E-2,6.1344538E-2,4.6666667E-1,-3.0595367E-3,-0E0,2.5057996E-4,-2.0456668E-4,9.802023E-4,-9.189424E-4,-0E0,-4.505463E-3,1.850429E-3,-0E0],"split_indices":[4,1,0,33,6,5,35,23,7,0,0,0,28,38,33,0,0,0,0,0,0,0,0,0,0],"split_type":[0,0,0,0,0,0,0,0,0,0,0,0,0,0,0,0,0,0,0,0,0,0,0,0,0],"sum_hessian":[1.19E2,6.2E1,5.7E1,5.2E1,1E1,2.4E1,3.3E1,4E1,1.2E1,3E0,7E0,9E0,1.5E1,2.1E1,1.2E1,3.7E1,3E0,5E0,7E0,4E0,1.1E1,7E0,1.4E1,8E0,4E0],"tree_param":{"num_deleted":"0","num_feature":"49","num_nodes":"25","size_leaf_vector":"1"}},{"base_weights":[8.755024E-5,7.933224E-3,-1.747496E-2,-1.0517154E-2,1.7208682E-2,-0E0,-2.324589E-3,-0E0,-2.0395512E-2,-8.527423E-4,2.7028736E-2,-0E0,-2.18636E-3,-1.3062664E-3,-0E0,-0E0,3.6270928E-3],"categories":[],"categories_nodes":[],"categories_segments":[],"categories_sizes":[],"default_left":[1,1,0,1,0,0,0,0,0,0,1,0,0,0,0,0,0],"id":63,"left_children":[1,3,5,7,9,-1,-1,-1,11,13,15,-1,-1,-1,-1,-1,-1],"loss_changes":[1.2041165E-2,2.1505851E-2,7.1682194E-3,4.248664E-3,2.874214E-2,0E0,0E0,0E0,2.7231672E-3,2.921851E-3,3.7710294E-2,0E0,0E0,0E0,0E0,0E0,0E0],"parents":[2147483647,0,0,1,1,2,2,3,3,4,4,8,8,9,9,10,10],"right_children":[2,4,6,8,10,-1,-1,-1,12,14,16,-1,-1,-1,-1,-1,-1],"split_conditions":[7.271339E-1,1.6722408E-1,4.037267E-1,1.754386E-2,1.5625E-1,-0E0,-2.324589E-3,-0E0,1.4285715E-1,5.0931674E-1,2.651515E-1,-0E0,-2.18636E-3,-1.3062664E-3,-0E0,-0E0,3.6270928E-3],"split_indices":[6,17,19,32,23,0,0,0,29,19,34,0,0,0,0,0,0],"split_type":[0,0,0,0,0,0,0,0,0,0,0,0,0,0,0,0,0],"sum_hessian":[1.18E2,1.02E2,1.6E1,1.6E1,8.6E1,3E0,1.3E1,3E0,1.3E1,1.3E1,7.3E1,3E0,1E1,9E0,4E0,